{"learner":{"attributes":{"scikit_learn":"{\"_estimator_type\": \"classifier\"}"},"feature_names":[],"feature_types":[],"gradient_booster":{"model":{"cats":{"enc":[],"feature_segments":[],"sorted_idx":[]},"gbtree_model_param":{"num_parallel_tree":"1","num_trees":"600"},"iteration_indptr":[0,3,6,9,12,15,18,21,24,27,30,33,36,39,42,45,48,51,54,57,60,63,66,69,72,75,78,81,84,87,90,93,96,99,102,105,108,111,114,117,120,123,126,129,132,135,138,141,144,147,150,153,156,159,162,165,168,171,174,177,180,183,186,189,192,195,198,201,204,207,210,213,216,219,222,225,228,231,234,237,240,243,246,249,252,255,258,261,264,267,270,273,276,279,282,285,288,291,294,297,300,303,306,309,312,315,318,321,324,327,330,333,336,339,342,345,348,351,354,357,360,363,366,369,372,375,378,381,384,387,390,393,396,399,402,405,408,411,414,417,420,423,426,429,432,435,438,441,444,447,450,453,456,459,462,465,468,471,474,477,480,483,486,489,492,495,498,501,504,507,510,513,516,519,522,525,528,531,534,537,540,543,546,549,552,555,558,561,564,567,570,573,576,579,582,585,588,591,594,597,600],"tree_info":[0,1,2,0,1,2,0,1,2,0,1,2,0,1,2,0,1,2,0,1,2,0,1,2,0,1,2,0,1,2,0,1,2,0,1,2,0,1,2,0,1,2,0,1,2,0,1,2,0,1,2,0,1,2,0,1,2,0,1,2,0,1,2,0,1,2,0,1,2,0,1,2,0,1,2,0,1,2,0,1,2,0,1,2,0,1,2,0,1,2,0,1,2,0,1,2,0,1,2,0,1,2,0,1,2,0,1,2,0,1,2,0,1,2,0,1,2,0,1,2,0,1,2,0,1,2,0,1,2,0,1,2,0,1,2,0,1,2,0,1,2,0,1,2,0,1,2,0,1,2,0,1,2,0,1,2,0,1,2,0,1,2,0,1,2,0,1,2,0,1,2,0,1,2,0,1,2,0,1,2,0,1,2,0,1,2,0,1,2,0,1,2,0,1,2,0,1,2,0,1,2,0,1,2,0,1,2,0,1,2,0,1,2,0,1,2,0,1,2,0,1,2,0,1,2,0,1,2,0,1,2,0,1,2,0,1,2,0,1,2,0,1,2,0,1,2,0,1,2,0,1,2,0,1,2,0,1,2,0,1,2,0,1,2,0,1,2,0,1,2,0,1,2,0,1,2,0,1,2,0,1,2,0,1,2,0,1,2,0,1,2,0,1,2,0,1,2,0,1,2,0,1,2,0,1,2,0,1,2,0,1,2,0,1,2,0,1,2,0,1,2,0,1,2,0,1,2,0,1,2,0,1,2,0,1,2,0,1,2,0,1,2,0,1,2,0,1,2,0,1,2,0,1,2,0,1,2,0,1,2,0,1,2,0,1,2,0,1,2,0,1,2,0,1,2,0,1,2,0,1,2,0,1,2,0,1,2,0,1,2,0,1,2,0,1,2,0,1,2,0,1,2,0,1,2,0,1,2,0,1,2,0,1,2,0,1,2,0,1,2,0,1,2,0,1,2,0,1,2,0,1,2,0,1,2,0,1,2,0,1,2,0,1,2,0,1,2,0,1,2,0,1,2,0,1,2,0,1,2,0,1,2,0,1,2,0,1,2,0,1,2,0,1,2,0,1,2,0,1,2,0,1,2,0,1,2,0,1,2,0,1,2,0,1,2,0,1,2,0,1,2,0,1,2,0,1,2,0,1,2,0,1,2,0,1,2,0,1,2,0,1,2,0,1,2,0,1,2,0,1,2,0,1,2,0,1,2,0,1,2,0,1,2,0,1,2,0,1,2,0,1,2,0,1,2,0,1,2,0,1,2,0,1,2,0,1,2,0,1,2,0,1,2,0,1,2,0,1,2,0,1,2,0,1,2,0,1,2,0,1,2,0,1,2,0,1,2,0,1,2],"trees":[{"base_weights":[-3.7096885E-3,8.570203E-1,-9.1639274E-1,8.666236E-1,-6.4181095E-1,-9.311625E-1,6.1291164E-1,7.587033E-1,9.8069245E-1,-8.154175E-3,-3.7630003E-2,-9.369161E-1,2.7410338E-2,2.5050032E-1,4.2618033E-2,6.075342E-1,9.8227584E-1,9.905777E-1,3.8992363E-1,-4.936566E-3,-4.696127E-2,-1.46324355E-2,3.5496682E-2,4.8786372E-1,1.0044316E0,9.9195856E-1,2.0772705E-3,6.857566E-1,9.997486E-1,-1.46324355E-2,6.267822E-1,6.3592703E-3,3.6683824E-2,5.1705983E-2,-8.154175E-3,5.0311442E-2,1.9318765E-2,4.4673774E-2,2.4940127E-3,5.0094545E-2,1.1892295E-2,4.3589693E-2,-8.154175E-3],"categories":[],"categories_nodes":[],"categories_segments":[],"categories_sizes":[],"default_left":[0,0,0,0,0,0,0,0,0,0,0,0,0,0,0,0,0,0,0,0,0,0,0,0,0,0,0,0,0,0,0,0,0,0,0,0,0,0,0,0,0,0,0],"id":0,"left_children":[1,3,5,7,9,11,13,15,17,-1,-1,19,-1,21,-1,23,25,27,29,-1,-1,-1,-1,31,33,35,-1,37,39,-1,41,-1,-1,-1,-1,-1,-1,-1,-1,-1,-1,-1,-1],"loss_changes":[1.4156183E3,1.3905029E1,2.0325928E1,1.0605164E1,2.2088194E-1,7.89032E0,5.648122E-1,1.5563416E1,2.2112122E0,0E0,0E0,1.5788574E0,0E0,1.4516087E0,0E0,1.3183723E1,1.7009583E0,5.3552246E-1,1.6334876E0,0E0,0E0,0E0,0E0,1.9689987E1,2.4475784E0,1.2468567E0,0E0,2.0611148E0,4.5028687E-1,0E0,1.4923735E0,0E0,0E0,0E0,0E0,0E0,0E0,0E0,0E0,0E0,0E0,0E0,0E0],"parents":[2147483647,0,0,1,1,2,2,3,3,4,4,5,5,6,6,7,7,8,8,11,11,13,13,15,15,16,16,17,17,18,18,23,23,24,24,25,25,27,27,28,28,30,30],"right_children":[2,4,6,8,10,12,14,16,18,-1,-1,20,-1,22,-1,24,26,28,30,-1,-1,-1,-1,32,34,36,-1,38,40,-1,42,-1,-1,-1,-1,-1,-1,-1,-1,-1,-1,-1,-1],"split_conditions":[1.7738368E-1,1.556867E0,1.2848526E-1,3.5489413E-1,5.158796E-1,3.577E-1,5.7809055E-4,6.933847E-1,2.0576699E0,-8.154175E-3,-3.7630003E-2,3.8233195E-3,2.7410338E-2,1.7374605E-1,4.2618033E-2,1.0719486E0,2.455982E-1,6.56157E-3,1.7808843E0,-4.936566E-3,-4.696127E-2,-1.46324355E-2,3.5496682E-2,8.522734E-1,1.4683273E0,2.010102E0,2.0772705E-3,6.6689694E-1,2.6220922E0,-1.46324355E-2,3.4334272E-1,6.3592703E-3,3.6683824E-2,5.1705983E-2,-8.154175E-3,5.0311442E-2,1.9318765E-2,4.4673774E-2,2.4940127E-3,5.0094545E-2,1.1892295E-2,4.3589693E-2,-8.154175E-3],"split_indices":[21,20,26,6,4,2,31,5,9,0,0,30,0,6,0,24,8,16,23,0,0,0,0,27,31,31,0,31,13,0,19,0,0,0,0,0,0,0,0,0,0,0,0],"split_type":[0,0,0,0,0,0,0,0,0,0,0,0,0,0,0,0,0,0,0,0,0,0,0,0,0,0,0,0,0,0,0,0,0,0,0,0,0,0,0,0,0,0,0],"sum_hessian":[1.8000187E3,9.264069E2,8.736117E2,9.2092816E2,5.4787507E0,8.656426E2,7.969092E0,4.7714938E2,4.437788E2,1.4942048E0,3.984546E0,8.626542E2,2.9884095E0,3.984546E0,3.984546E0,2.868873E2,1.9026207E2,4.3580972E2,7.969092E0,2.4903412E0,8.601639E2,1.992273E0,1.992273E0,2.2213844E2,6.474887E1,1.8826979E2,1.992273E0,1.4942047E1,4.2086768E2,1.992273E0,5.976819E0,9.064842E1,1.3149002E2,6.3254665E1,1.4942048E0,1.8328911E2,4.9806824E0,1.0957501E1,3.984546E0,4.1937347E2,1.4942048E0,4.482614E0,1.4942048E0],"tree_param":{"num_deleted":"0","num_feature":"32","num_nodes":"43","size_leaf_vector":"1"}},{"base_weights":[2.373321E-4,-9.398529E-1,1.0379916E0,-9.50346E-1,7.3086864E-1,5.2189995E-2,-3.4185182E-2,-9.535162E-1,1.816185E-2,4.1831125E-2,1.13376845E-2,-9.5563567E-1,1.4734988E-3,-4.7834914E-2,-8.685732E-3],"categories":[],"categories_nodes":[],"categories_segments":[],"categories_sizes":[],"default_left":[0,0,0,0,0,0,0,0,0,0,0,0,0,0,0],"id":1,"left_children":[1,3,5,7,9,-1,-1,11,-1,-1,-1,13,-1,-1,-1],"loss_changes":[1.7648009E3,1.7334167E1,9.311951E0,4.276001E0,1.5624976E-1,0E0,0E0,1.9901123E0,0E0,0E0,0E0,6.14563E-1,0E0,0E0,0E0],"parents":[2147483647,0,0,1,1,2,2,3,3,4,4,7,7,11,11],"right_children":[2,4,6,8,10,-1,-1,12,-1,-1,-1,14,-1,-1,-1],"split_conditions":[6.6999745E-1,6.3356465E-1,3.577E-1,8.5794854E-1,9.6456707E-4,5.2189995E-2,-3.4185182E-2,8.4790385E-1,1.816185E-2,4.1831125E-2,1.13376845E-2,1.9733713E0,1.4734988E-3,-4.7834914E-2,-8.685732E-3],"split_indices":[10,21,2,22,9,0,0,8,0,0,0,11,0,0,0],"split_type":[0,0,0,0,0,0,0,0,0,0,0,0,0,0,0],"sum_hessian":[1.8069712E3,9.481484E2,8.588228E2,9.426591E2,5.48928E0,8.563277E2,2.4951272E0,9.40663E2,1.9961019E0,3.9922037E0,1.4970764E0,9.386669E2,1.9961019E0,9.371698E2,1.4970764E0],"tree_param":{"num_deleted":"0","num_feature":"32","num_nodes":"15","size_leaf_vector":"1"}},{"base_weights":[7.1008294E-3,5.208672E-1,-5.143054E-1,1.1805398E0,-6.636873E-3,-2.6256531E-2,-1.4810984E-2,2.539244E0,3.817106E-1,4.2031848E-1,-3.6255845E-1,-1.9103652E-2,2.8351933E-2,4.160141E0,7.2413635E-1,9.368514E-3,1.8888569E0,1.3091669E0,-2.2966933E-1,-4.056834E-1,1.4683685E-1,5.8841662E0,1.9900959E0,2.1231883E0,-1.8755065E-1,3.2438898E-1,-2.881702E-1,3.483307E0,7.522575E-1,2.2492661E0,-4.4008102E-2,6.469006E-2,-2.4665467E-2,-2.5620226E-2,-2.1159711E-1,6.151045E-2,-2.0148093E-2,3.395999E-1,2.8351933E-2,-1.88947E-2,1.520235E-1,-1.3244788E-2,1.316842E-1,9.410625E-3,-2.2300547E-2,-1.0842243E-3,9.515939E-2,3.3582933E-2,-1.8361755E-2,2.0688541E-1,3.6592036E-2,-3.1196063E-3,9.851904E-2,1.439505E-1,6.700914E-3,-1.7024724E-2,5.349458E-2,-8.254333E-3,5.133322E-2,3.6592036E-2,-1.4864664E-2],"categories":[],"categories_nodes":[],"categories_segments":[],"categories_sizes":[],"default_left":[0,0,0,0,0,0,0,0,0,0,0,0,0,0,0,0,0,0,0,0,0,0,0,0,0,0,0,0,0,0,0,0,0,0,0,0,0,0,0,0,0,0,0,0,0,0,0,0,0,0,0,0,0,0,0,0,0,0,0,0,0],"id":2,"left_children":[1,3,5,7,9,-1,11,13,15,17,19,-1,-1,21,23,25,27,29,31,33,35,37,39,41,43,45,47,49,51,53,55,57,-1,-1,59,-1,-1,-1,-1,-1,-1,-1,-1,-1,-1,-1,-1,-1,-1,-1,-1,-1,-1,-1,-1,-1,-1,-1,-1,-1,-1],"loss_changes":[9.914135E1,6.487346E1,9.8545456E-1,8.893473E1,1.6043703E1,0E0,1.2691948E0,8.669769E1,2.991561E1,2.8035583E1,1.3242035E0,0E0,0E0,4.776367E1,2.0289524E1,4.1968536E0,1.652103E1,2.6083767E1,2.249816E0,9.964237E-1,3.609419E0,3.6444E1,2.2412968E1,8.297625E0,1.0901939E0,1.191679E1,1.9953928E0,4.3907127E0,7.5078692E0,1.5694885E1,3.453623E0,3.3496015E0,0E0,0E0,1.8852997E0,0E0,0E0,0E0,0E0,0E0,0E0,0E0,0E0,0E0,0E0,0E0,0E0,0E0,0E0,0E0,0E0,0E0,0E0,0E0,0E0,0E0,0E0,0E0,0E0,0E0,0E0],"parents":[2147483647,0,0,1,1,2,2,3,3,4,4,6,6,7,7,8,8,9,9,10,10,13,13,14,14,15,15,16,16,17,17,18,18,19,19,20,20,21,21,22,22,23,23,24,24,25,25,26,26,27,27,28,28,29,29,30,30,31,31,34,34],"right_children":[2,4,6,8,10,-1,12,14,16,18,20,-1,-1,22,24,26,28,30,32,34,36,38,40,42,44,46,48,50,52,54,56,58,-1,-1,60,-1,-1,-1,-1,-1,-1,-1,-1,-1,-1,-1,-1,-1,-1,-1,-1,-1,-1,-1,-1,-1,-1,-1,-1,-1,-1],"split_conditions":[2.9381028E-1,6.3062894E-1,2.020629E-1,9.177023E-1,8.201964E-2,-2.6256531E-2,6.402461E-1,5.3957564E-1,2.0185557E-1,1.2672306E0,6.2903243E-1,-1.9103652E-2,2.8351933E-2,8.522734E-1,3.2551163E-1,1.8112744E0,2.5523394E-1,1.6293025E0,1.5880376E0,3.423055E0,8.4750754E-1,1.3878211E-1,3.8242802E-1,1.1639858E0,2.1638882E0,1.5636219E0,8.036345E-3,1.5778804E-1,1.0730753E0,1.0719486E0,1.2621785E0,3.2706745E0,-2.4665467E-2,-2.5620226E-2,1.0018487E0,6.151045E-2,-2.0148093E-2,3.395999E-1,2.8351933E-2,-1.88947E-2,1.520235E-1,-1.3244788E-2,1.316842E-1,9.410625E-3,-2.2300547E-2,-1.0842243E-3,9.515939E-2,3.3582933E-2,-1.8361755E-2,2.0688541E-1,3.6592036E-2,-3.1196063E-3,9.851904E-2,1.439505E-1,6.700914E-3,-1.7024724E-2,5.349458E-2,-8.254333E-3,5.133322E-2,3.6592036E-2,-1.4864664E-2],"split_indices":[30,29,7,28,6,0,30,25,19,29,19,0,0,27,6,28,25,27,0,16,29,1,31,7,2,26,2,15,31,24,31,16,0,0,7,0,0,0,0,0,0,0,0,0,0,0,0,0,0,0,0,0,0,0,0,0,0,0,0,0,0],"split_type":[0,0,0,0,0,0,0,0,0,0,0,0,0,0,0,0,0,0,0,0,0,0,0,0,0,0,0,0,0,0,0,0,0,0,0,0,0,0,0,0,0,0,0,0,0,0,0,0,0,0,0,0,0,0,0,0,0,0,0,0,0],"sum_hessian":[3.6809473E2,1.854062E2,1.8268852E2,8.183238E1,1.0357382E2,1.7876299E2,3.9255385E0,2.9491865E1,5.234051E1,4.7005806E1,5.6568016E1,2.6170256E0,1.3085128E0,1.4896915E1,1.4594951E1,4.2778305E1,9.562209E0,1.9426382E1,2.7579424E1,5.234051E1,4.227503E0,7.3478026E0,7.5491123E0,5.234051E0,9.3609E0,2.0734896E1,2.204341E1,3.1202998E0,6.4419093E0,1.1072032E1,8.354351E0,1.3387093E1,1.4192331E1,3.2712822E1,1.9627693E1,1.0065483E0,3.2209547E0,6.03929E0,1.3085128E0,2.5163708E0,5.0327415E0,1.0065483E0,4.227503E0,3.9255385E0,5.435361E0,1.7815905E1,2.9189901E0,1.1072031E0,2.0936205E1,2.1137514E0,1.0065483E0,4.4288125E0,2.0130966E0,8.253696E0,2.8183353E0,7.146493E0,1.207858E0,1.1474651E1,1.9124418E0,1.0065483E0,1.8621143E1],"tree_param":{"num_deleted":"0","num_feature":"32","num_nodes":"61","size_leaf_vector":"1"}},{"base_weights":[-8.541943E-3,7.990731E-1,-8.80905E-1,6.8299043E-1,9.110029E-1,-8.9519453E-1,4.4668204E-1,4.12159E-1,8.285048E-1,9.2040765E-1,-4.4013232E-1,-8.985346E-1,3.0822251E-2,7.816855E-1,-3.0096183E-2,1.2927495E-1,7.864038E-1,8.647163E-1,2.574364E-1,9.679011E-1,7.8354037E-1,-2.7467102E-2,-7.7045793E-3,-8.996614E-1,-7.3557044E-3,1.0885272E-2,4.3916978E-2,-1.5920016E-1,5.791138E-1,8.4794956E-1,-3.116221E-1,9.236351E-1,5.960682E-1,-1.030005E-1,6.892177E-1,9.705037E-1,1.0972058E-2,5.1566446E-1,9.1137946E-1,-4.503567E-2,-8.861756E-3,7.656354E-3,-3.105223E-2,4.0562462E-2,-2.7151082E-3,4.495087E-2,1.460172E-3,1.0818743E-2,-3.2386985E-2,3.7299544E-2,4.864138E-2,-2.5719527E-2,3.662791E-2,1.3816713E-2,-3.771795E-2,1.35032255E-2,4.268532E-2,4.8654765E-2,1.7461067E-2,6.2299403E-3,3.533825E-2,2.9162986E-2,4.748927E-2],"categories":[],"categories_nodes":[],"categories_segments":[],"categories_sizes":[],"default_left":[0,0,0,0,0,0,0,0,0,0,0,0,0,0,0,0,0,0,0,0,0,0,0,0,0,0,0,0,0,0,0,0,0,0,0,0,0,0,0,0,0,0,0,0,0,0,0,0,0,0,0,0,0,0,0,0,0,0,0,0,0,0,0],"id":3,"left_children":[1,3,5,7,9,11,13,15,17,19,21,23,-1,25,-1,27,29,31,33,35,37,-1,-1,39,-1,-1,-1,41,43,45,47,49,51,53,55,57,-1,59,61,-1,-1,-1,-1,-1,-1,-1,-1,-1,-1,-1,-1,-1,-1,-1,-1,-1,-1,-1,-1,-1,-1,-1,-1],"loss_changes":[1.280028E3,1.1635986E1,1.6968811E1,1.806781E1,6.4704285E0,4.918396E0,3.9721308E0,1.7393139E1,6.040558E0,2.3249512E0,3.955406E-2,5.983887E-1,0E0,2.4429798E-1,0E0,1.2460293E1,5.05838E0,3.9508667E0,3.1032634E0,4.6472168E-1,3.8944168E0,0E0,0E0,4.9505615E-1,0E0,0E0,0E0,8.584674E0,5.551405E0,2.793724E0,9.3815696E-1,1.2965546E0,8.557173E0,3.0472517E0,3.895874E-1,2.1789551E-1,0E0,3.160983E0,5.1678467E-1,0E0,0E0,0E0,0E0,0E0,0E0,0E0,0E0,0E0,0E0,0E0,0E0,0E0,0E0,0E0,0E0,0E0,0E0,0E0,0E0,0E0,0E0,0E0,0E0],"parents":[2147483647,0,0,1,1,2,2,3,3,4,4,5,5,6,6,7,7,8,8,9,9,10,10,11,11,13,13,15,15,16,16,17,17,18,18,19,19,20,20,23,23,27,27,28,28,29,29,30,30,31,31,32,32,33,33,34,34,35,35,37,37,38,38],"right_children":[2,4,6,8,10,12,14,16,18,20,22,24,-1,26,-1,28,30,32,34,36,38,-1,-1,40,-1,-1,-1,42,44,46,48,50,52,54,56,58,-1,60,62,-1,-1,-1,-1,-1,-1,-1,-1,-1,-1,-1,-1,-1,-1,-1,-1,-1,-1,-1,-1,-1,-1,-1,-1],"split_conditions":[2.1157195E-1,3.0278498E-1,3.9496046E-2,8.654255E-1,8.7271434E-1,7.5953865E-1,6.6947764E-1,1.0701208E0,1.7033157E0,6.767787E-1,1.1612778E-1,6.801127E-1,3.0822251E-2,2.8835052E-1,-3.0096183E-2,1.0174861E0,1.2261454E0,3.9464247E-1,2.5860205E0,1.2480181E0,3.6944506E-1,-2.7467102E-2,-7.7045793E-3,3.577E-1,-7.3557044E-3,1.0885272E-2,4.3916978E-2,8.54623E-1,1.708882E0,1.3285372E0,1.613417E-2,1.4038845E0,1.6281569E-1,1.6951216E-3,1.2499254E0,6.9765276E-1,1.0972058E-2,5.0053877E-1,5.5456465E-1,-4.503567E-2,-8.861756E-3,7.656354E-3,-3.105223E-2,4.0562462E-2,-2.7151082E-3,4.495087E-2,1.460172E-3,1.0818743E-2,-3.2386985E-2,3.7299544E-2,4.864138E-2,-2.5719527E-2,3.662791E-2,1.3816713E-2,-3.771795E-2,1.35032255E-2,4.268532E-2,4.8654765E-2,1.7461067E-2,6.2299403E-3,3.533825E-2,2.9162986E-2,4.748927E-2],"split_indices":[21,6,26,27,4,2,4,25,31,9,14,16,0,21,0,28,19,9,27,18,29,0,0,2,0,0,0,26,26,9,0,27,29,11,23,30,0,25,6,0,0,0,0,0,0,0,0,0,0,0,0,0,0,0,0,0,0,0,0,0,0,0,0],"split_type":[0,0,0,0,0,0,0,0,0,0,0,0,0,0,0,0,0,0,0,0,0,0,0,0,0,0,0,0,0,0,0,0,0,0,0,0,0,0,0,0,0,0,0,0,0,0,0,0,0,0,0,0,0,0,0,0,0,0,0,0,0,0,0],"sum_hessian":[1.8148456E3,9.4243933E2,8.724062E2,4.661234E2,4.7631595E2,8.6343823E2,8.967975E0,1.6425127E2,3.0187213E2,4.7333997E2,2.9759712E0,8.6193933E2,1.4989076E0,6.989538E0,1.9784362E0,9.430982E1,6.994145E1,2.8338824E2,1.8483875E1,3.4689447E2,1.2644551E2,1.4875319E0,1.4884392E0,8.6045166E2,1.4876342E0,1.4984491E0,5.4910893E0,5.78546E1,3.645522E1,6.6444885E1,3.496572E0,2.3041621E2,5.2972042E1,1.0489247E1,7.994628E0,3.4539676E2,1.4977018E0,4.247547E1,8.397003E1,8.5895404E2,1.4976122E0,3.4912853E1,2.2941746E1,2.6472702E1,9.982516E0,6.2451538E1,3.9933453E0,1.4986461E0,1.997926E0,5.347426E1,1.7694196E2,5.495215E0,4.7476826E1,6.992657E0,3.4965901E0,2.9976923E0,4.9969354E0,3.4339807E2,1.998702E0,1.4485185E1,2.7990288E1,1.0494811E1,7.347523E1],"tree_param":{"num_deleted":"0","num_feature":"32","num_nodes":"63","size_leaf_vector":"1"}},{"base_weights":[-7.99834E-3,-9.021332E-1,9.749151E-1,-9.161721E-1,7.765778E-1,9.858242E-1,-3.8682945E-2,-4.5911007E-2,2.0208468E-3,1.0594099E-2,4.335958E-2,9.902369E-1,-1.9505732E-2,2.8246045E-1,9.936073E-1,-2.8978264E-2,3.7498403E-2,1.7258165E-2,4.973567E-2],"categories":[],"categories_nodes":[],"categories_segments":[],"categories_sizes":[],"default_left":[0,0,0,0,0,0,0,0,0,0,0,0,0,0,0,0,0,0,0],"id":4,"left_children":[1,3,5,7,9,11,-1,-1,-1,-1,-1,13,-1,15,17,-1,-1,-1,-1],"loss_changes":[1.6096117E3,2.3313477E1,1.7404663E1,1.9013062E0,2.5094604E-1,5.6531982E0,0E0,0E0,0E0,0E0,0E0,1.7827148E0,0E0,2.6498053E0,2.738037E-1,0E0,0E0,0E0,0E0],"parents":[2147483647,0,0,1,1,2,2,3,3,4,4,5,5,11,11,13,13,14,14],"right_children":[2,4,6,8,10,12,-1,-1,-1,-1,-1,14,-1,16,18,-1,-1,-1,-1],"split_conditions":[2.197891E-1,1.556867E0,2.4803673E-1,1.3257343E0,1.4153905E-3,1.2848526E-1,-3.8682945E-2,-4.5911007E-2,2.0208468E-3,1.0594099E-2,4.335958E-2,2.169815E-1,-1.9505732E-2,9.431118E-1,2.5687525E-1,-2.8978264E-2,3.7498403E-2,1.7258165E-2,4.973567E-2],"split_indices":[21,20,7,30,18,26,0,0,0,0,0,22,0,5,21,0,0,0,0],"split_type":[0,0,0,0,0,0,0,0,0,0,0,0,0,0,0,0,0,0,0],"sum_hessian":[1.8294818E3,9.5804834E2,8.714335E2,9.505532E2,7.495104E0,8.664639E2,4.9695463E0,9.485625E2,1.9907229E0,1.4980029E0,5.997101E0,8.6397345E2,2.4904728E0,4.4966016E0,8.5947687E2,1.4968692E0,2.999732E0,1.9966373E0,8.574802E2],"tree_param":{"num_deleted":"0","num_feature":"32","num_nodes":"19","size_leaf_vector":"1"}},{"base_weights":[1.000584E-3,4.9062258E-1,-5.1871437E-1,1.5157025E-1,1.4643177E0,-2.6214251E-2,1.0057843E-2,9.869318E-3,1.4698102E0,2.0225906E0,-7.2447876E-3,3.455264E-1,-1.832329E-1,2.2083633E0,-6.40254E-2,1.6215372E0,4.1044664E0,8.4448576E-1,-3.0694473E-1,1.1387724E0,-7.4344344E-2,-3.1869122E-1,4.82602E-1,2.7375987E0,-1.5889525E-2,3.591271E-2,-2.0428022E-2,2.0613174E0,4.4310936E-1,2.2983049E-1,5.8657493E-2,-8.222582E-4,8.459925E-2,-2.3600163E-2,3.0498314E-1,1.3020438E-1,7.95071E-3,-1.4234853E-2,4.251764E-2,-1.9629208E-2,1.726737E-2,-5.4801963E-3,5.6646574E-2,1.6017352E-1,7.6346747E-3,1.18754975E-1,4.1994858E-3,-4.64278E-3,9.425735E-2,3.674021E-2,-1.3431502E-2],"categories":[],"categories_nodes":[],"categories_segments":[],"categories_sizes":[],"default_left":[0,0,0,0,0,0,0,0,0,0,0,0,0,0,0,0,0,0,0,0,0,0,0,0,0,0,0,0,0,0,0,0,0,0,0,0,0,0,0,0,0,0,0,0,0,0,0,0,0,0,0],"id":5,"left_children":[1,3,5,7,9,-1,-1,11,13,15,17,19,21,23,25,27,29,31,33,35,37,39,41,43,-1,-1,-1,45,47,-1,-1,-1,-1,-1,49,-1,-1,-1,-1,-1,-1,-1,-1,-1,-1,-1,-1,-1,-1,-1,-1],"loss_changes":[9.380728E1,6.24433E1,8.225937E-1,2.6493269E1,4.0195953E1,0E0,0E0,8.433733E0,1.5736588E1,2.2953003E1,3.9473488E0,1.5907933E1,7.6066504E0,1.3330898E1,1.7613165E0,1.5352837E1,1.9286194E0,2.9662716E0,1.2975276E0,2.328063E1,6.4673123E0,3.5342898E0,5.6572027E0,8.91605E0,0E0,0E0,0E0,1.381218E1,7.752252E0,0E0,0E0,0E0,0E0,0E0,9.4535476E-1,0E0,0E0,0E0,0E0,0E0,0E0,0E0,0E0,0E0,0E0,0E0,0E0,0E0,0E0,0E0,0E0],"parents":[2147483647,0,0,1,1,2,2,3,3,4,4,7,7,8,8,9,9,10,10,11,11,12,12,13,13,14,14,15,15,16,16,17,17,18,18,19,19,20,20,21,21,22,22,23,23,27,27,28,28,34,34],"right_children":[2,4,6,8,10,-1,-1,12,14,16,18,20,22,24,26,28,30,32,34,36,38,40,42,44,-1,-1,-1,46,48,-1,-1,-1,-1,-1,50,-1,-1,-1,-1,-1,-1,-1,-1,-1,-1,-1,-1,-1,-1,-1,-1],"split_conditions":[1.1448457E-2,5.944461E-1,1.3194326E0,5.919364E-1,1.3364301E0,-2.6214251E-2,1.0057843E-2,6.575039E-2,1.4813936E0,6.036647E-1,1.3469659E-1,5.71033E-1,2.7524934E0,3.462735E-1,1.1710648E-1,1.8821092E-1,1.0969284E0,1.0718555E0,6.592425E-1,1.3434625E0,4.19266E0,1.919382E0,4.568453E-2,2.8292928E0,-1.5889525E-2,3.591271E-2,-2.0428022E-2,8.45616E-1,1.0371253E-1,2.2983049E-1,5.8657493E-2,-8.222582E-4,8.459925E-2,-2.3600163E-2,1.9079763E0,1.3020438E-1,7.95071E-3,-1.4234853E-2,4.251764E-2,-1.9629208E-2,1.726737E-2,-5.4801963E-3,5.6646574E-2,1.6017352E-1,7.6346747E-3,1.18754975E-1,4.1994858E-3,-4.64278E-3,9.425735E-2,3.674021E-2,-1.3431502E-2],"split_indices":[10,9,16,19,25,0,0,25,25,19,0,0,7,11,0,24,0,9,19,28,16,26,19,7,0,0,0,25,3,0,0,0,0,0,25,0,0,0,0,0,0,0,0,0,0,0,0,0,0,0,0],"split_type":[0,0,0,0,0,0,0,0,0,0,0,0,0,0,0,0,0,0,0,0,0,0,0,0,0,0,0,0,0,0,0,0,0,0,0,0,0,0,0,0,0,0,0,0,0,0,0,0,0,0,0],"sum_hessian":[3.666466E2,1.8881784E2,1.7782878E2,1.4090773E2,4.7910103E1,1.7673283E2,1.095937E0,1.2814102E2,1.2766714E1,3.446175E1,1.3448353E1,4.650867E1,8.1632355E1,8.320545E0,4.446169E0,3.0386889E1,4.0748606E0,3.0272648E0,1.0421088E1,1.5504468E1,3.1004202E1,6.826566E1,1.336669E1,6.8101087E0,1.5104365E0,1.0278016E0,3.4183674E0,2.1583052E1,8.803838E0,3.0026388E0,1.072222E0,1.9881754E0,1.0390894E0,8.387379E0,2.0337098E0,5.548422E0,9.956046E0,2.5822212E1,5.181991E0,6.179772E1,6.4679394E0,7.4311595E0,5.9355307E0,5.5674086E0,1.2427002E0,1.8453499E1,3.1295526E0,7.1004186E0,1.7034189E0,1.0019308E0,1.0317789E0],"tree_param":{"num_deleted":"0","num_feature":"32","num_nodes":"51","size_leaf_vector":"1"}},{"base_weights":[1.5153749E-3,7.789358E-1,-8.6401856E-1,8.116845E-1,4.4603553E-1,-8.6713773E-1,6.8956525E-3,8.185584E-1,-3.468926E-2,1.9053616E-1,8.111431E-1,-1.6644806E-2,-4.341468E-2,8.647351E-1,6.519296E-1,2.6136935E-2,7.431395E-1,1.9442905E-1,8.8327813E-1,8.698593E-1,-2.8984496E-2,3.6583862E-1,8.1577444E-1,-1.07669726E-1,7.0037526E-1,4.3430157E-2,3.4025586E-1,3.4843378E-2,-2.9335057E-2,3.228929E-1,4.7090154E-2,3.999965E-2,4.6627764E-2,-2.3142843E-2,2.9326443E-2,2.8895913E-2,4.487581E-2,9.858756E-4,-4.027735E-2,9.596697E-3,4.0206768E-2,-9.215463E-3,3.3135023E-2,-1.0096473E-2,3.2633748E-2],"categories":[],"categories_nodes":[],"categories_segments":[],"categories_sizes":[],"default_left":[0,0,0,0,0,0,0,0,0,0,0,0,0,0,0,0,0,0,0,0,0,0,0,0,0,0,0,0,0,0,0,0,0,0,0,0,0,0,0,0,0,0,0,0,0],"id":6,"left_children":[1,3,5,7,9,11,-1,13,-1,15,17,-1,-1,19,21,23,25,27,29,31,-1,33,35,37,39,-1,41,-1,-1,43,-1,-1,-1,-1,-1,-1,-1,-1,-1,-1,-1,-1,-1,-1,-1],"loss_changes":[1.2079084E3,9.948059E0,2.774292E0,9.465271E0,7.95372E0,2.3382568E-1,0E0,6.0251465E0,0E0,4.744845E0,1.4065266E0,0E0,0E0,5.4443665E0,8.6020355E0,3.8153374E0,3.104086E-1,2.3701634E0,7.283249E-1,2.1690063E0,0E0,1.324857E1,1.8128891E0,3.168008E0,2.1483612E-1,0E0,8.8171333E-1,0E0,0E0,9.103776E-1,0E0,0E0,0E0,0E0,0E0,0E0,0E0,0E0,0E0,0E0,0E0,0E0,0E0,0E0,0E0],"parents":[2147483647,0,0,1,1,2,2,3,3,4,4,5,5,7,7,9,9,10,10,13,13,14,14,15,15,16,16,17,17,18,18,19,19,21,21,22,22,23,23,24,24,26,26,29,29],"right_children":[2,4,6,8,10,12,-1,14,-1,16,18,-1,-1,20,22,24,26,28,30,32,-1,34,36,38,40,-1,42,-1,-1,44,-1,-1,-1,-1,-1,-1,-1,-1,-1,-1,-1,-1,-1,-1,-1],"split_conditions":[6.9268733E-1,6.1509514E-1,5.4626817E-1,1.4306966E0,1.4543606E0,7.251915E-1,6.8956525E-3,5.944461E-1,-3.468926E-2,1.5481682E0,2.144931E-1,-1.6644806E-2,-4.341468E-2,1.4704804E0,3.222425E-1,1.6884508E0,2.3008704E0,2.807641E0,6.711687E-1,2.060594E-1,-2.8984496E-2,6.4660865E-1,2.3696813E-1,1.5394738E0,2.807641E0,4.3430157E-2,2.5440168E0,3.4843378E-2,-2.9335057E-2,2.0318213E0,4.7090154E-2,3.999965E-2,4.6627764E-2,-2.3142843E-2,2.9326443E-2,2.8895913E-2,4.487581E-2,9.858756E-4,-4.027735E-2,9.596697E-3,4.0206768E-2,-9.215463E-3,3.3135023E-2,-1.0096473E-2,3.2633748E-2],"split_indices":[10,19,2,20,25,10,0,9,0,29,13,0,0,30,25,0,29,2,19,6,0,27,6,13,2,0,29,0,0,7,0,0,0,0,0,0,0,0,0,0,0,0,0,0,0],"split_type":[0,0,0,0,0,0,0,0,0,0,0,0,0,0,0,0,0,0,0,0,0,0,0,0,0,0,0,0,0,0,0,0,0,0,0,0,0,0,0,0,0,0,0,0,0],"sum_hessian":[1.793122E3,9.4469727E2,8.484247E2,8.5877765E2,8.591959E1,8.4592566E2,2.4989858E0,8.5532855E2,3.4490952E0,5.1442444E1,3.4477146E1,2.4501016E0,8.434756E2,6.6645E2,1.8887856E2,4.045454E1,1.0987906E1,3.997354E0,3.0479792E1,6.644905E2,1.9595209E0,6.995767E1,1.1892088E2,3.4456707E1,5.9978323E0,7.497206E0,3.4907007E0,2.498282E0,1.4990718E0,3.49848E0,2.6981312E1,3.207818E2,3.4370868E2,1.4481621E1,5.547605E1,3.2479767E1,8.6441124E1,2.9959742E1,4.496964E0,1.4995549E0,4.498277E0,1.4919465E0,1.9987543E0,1.4996278E0,1.9988521E0],"tree_param":{"num_deleted":"0","num_feature":"32","num_nodes":"45","size_leaf_vector":"1"}},{"base_weights":[3.0056662E-3,-8.6767125E-1,9.436276E-1,-8.7849617E-1,5.967466E-1,9.488705E-1,-3.1929154E-2,-8.8150704E-1,1.7481782E-2,-8.307637E-3,4.0697716E-2,3.1382713E-1,4.7553774E-2,-8.834661E-1,1.00345425E-2,-9.809031E-3,3.1697866E-2,-4.422361E-2,-4.2534077E-1,-2.6763728E-2,-7.2084256E-3],"categories":[],"categories_nodes":[],"categories_segments":[],"categories_sizes":[],"default_left":[0,0,0,0,0,0,0,0,0,0,0,0,0,0,0,0,0,0,0,0,0],"id":7,"left_children":[1,3,5,7,9,11,-1,13,-1,-1,-1,15,-1,17,-1,-1,-1,-1,19,-1,-1],"loss_changes":[1.4801526E3,1.5402405E1,7.8125E0,3.7548828E0,1.3751233E0,9.146118E-1,0E0,2.1490479E0,0E0,0E0,0E0,8.574573E-1,0E0,5.1818848E-2,0E0,0E0,0E0,0E0,4.527062E-2,0E0,0E0],"parents":[2147483647,0,0,1,1,2,2,3,3,4,4,5,5,7,7,11,11,13,13,18,18],"right_children":[2,4,6,8,10,12,-1,14,-1,-1,-1,16,-1,18,-1,-1,-1,-1,20,-1,-1],"split_conditions":[6.6999745E-1,1.1818268E0,5.4626817E-1,1.9733713E0,1.3890328E-1,7.251915E-1,-3.1929154E-2,1.460857E0,1.7481782E-2,-8.307637E-3,4.0697716E-2,1.4294736E0,4.7553774E-2,1.707552E0,1.00345425E-2,-9.809031E-3,3.1697866E-2,-4.422361E-2,1.6194321E-3,-2.6763728E-2,-7.2084256E-3],"split_indices":[10,30,2,11,10,10,0,1,0,0,0,1,0,11,0,0,0,0,5,0,0],"split_type":[0,0,0,0,0,0,0,0,0,0,0,0,0,0,0,0,0,0,0,0,0],"sum_hessian":[1.8053174E3,9.3755597E2,8.6776135E2,9.310736E2,6.4823503E0,8.6529443E2,2.466967E0,9.290781E2,1.9955016E0,1.4886856E0,4.9936647E0,3.490062E0,8.618043E2,9.2758264E2,1.4955033E0,1.4952016E0,1.9948604E0,9.2462146E2,2.9611459E0,1.479112E0,1.4820337E0],"tree_param":{"num_deleted":"0","num_feature":"32","num_nodes":"21","size_leaf_vector":"1"}},{"base_weights":[1.1703589E-2,4.8676786E-1,-5.0085926E-1,1.9258766E-1,1.4684231E0,-5.1207584E-1,3.400435E-2,5.506435E-1,-3.23114E-1,2.7370942E0,5.6915075E-1,-1.0782506E-1,-2.6167134E-2,1.1125997E0,-2.9023135E-1,1.0182054E0,-4.3131712E-1,3.4625406E0,3.325083E-1,1.3138762E0,-2.670842E-1,-2.1067047E-2,3.51345E-2,2.1590269E0,4.4444565E-2,-3.3901423E-1,2.7932892E-2,1.7595472E0,-1.613128E-2,-1.5707126E-1,-4.7602716E-1,3.754086E0,4.053246E-2,6.137654E-2,-1.9252092E-2,2.2597456E0,-1.460133E-1,6.068243E-1,-2.410479E-2,1.364039E-1,6.255468E-2,-1.3568784E-2,2.855411E-2,1.4912208E-3,-2.5287056E-2,1.1730214E-1,1.1438073E-2,-2.3023164E-2,4.0479496E-2,-9.959677E-3,-2.4698444E-2,2.0881593E-1,7.08982E-2,1.2819575E-1,8.468653E-3,1.7500477E-2,-2.0880459E-2,6.1304748E-2,-1.3802755E-2],"categories":[],"categories_nodes":[],"categories_segments":[],"categories_sizes":[],"default_left":[0,0,0,0,0,0,0,0,0,0,0,0,0,0,0,0,0,0,0,0,0,0,0,0,0,0,0,0,0,0,0,0,0,0,0,0,0,0,0,0,0,0,0,0,0,0,0,0,0,0,0,0,0,0,0,0,0,0,0],"id":8,"left_children":[1,3,5,7,9,11,-1,13,15,17,19,21,-1,23,25,27,29,31,33,35,37,-1,-1,39,41,43,-1,45,-1,47,49,51,-1,-1,-1,53,55,57,-1,-1,-1,-1,-1,-1,-1,-1,-1,-1,-1,-1,-1,-1,-1,-1,-1,-1,-1,-1,-1],"loss_changes":[8.9319855E1,5.4689846E1,2.6856194E0,2.7435495E1,4.8346367E1,7.422943E-1,0E0,4.1667496E1,9.310131E0,3.004161E1,1.7078423E1,1.8244286E0,0E0,5.875643E1,1.6736813E0,5.3987527E0,6.273508E-1,7.4955597E0,3.8447628E0,2.0181711E1,2.8261456E0,0E0,0E0,1.0317612E1,4.6584783E0,2.1377258E0,0E0,2.4123077E0,0E0,3.1645582E0,1.4370346E-1,5.920227E0,0E0,0E0,0E0,5.151291E0,1.0341766E0,2.0361798E0,0E0,0E0,0E0,0E0,0E0,0E0,0E0,0E0,0E0,0E0,0E0,0E0,0E0,0E0,0E0,0E0,0E0,0E0,0E0,0E0,0E0],"parents":[2147483647,0,0,1,1,2,2,3,3,4,4,5,5,7,7,8,8,9,9,10,10,11,11,13,13,14,14,15,15,16,16,17,17,18,18,19,19,20,20,23,23,24,24,25,25,27,27,29,29,30,30,31,31,35,35,36,36,37,37],"right_children":[2,4,6,8,10,12,-1,14,16,18,20,22,-1,24,26,28,30,32,34,36,38,-1,-1,40,42,44,-1,46,-1,48,50,52,-1,-1,-1,54,56,58,-1,-1,-1,-1,-1,-1,-1,-1,-1,-1,-1,-1,-1,-1,-1,-1,-1,-1,-1,-1,-1],"split_conditions":[2.1237215E-1,6.767787E-1,1.4469796E0,3.459496E-1,5.02875E-1,1.3669841E-3,3.400435E-2,8.1859875E-1,5.206593E-1,1.2260883E0,5.5456465E-1,9.5921144E-2,-2.6167134E-2,8.318393E-1,2.3485887E0,7.806644E-4,7.368949E-1,2.213129E0,1.8058573E-1,1.5257126E0,1.5926924E0,-2.1067047E-2,3.51345E-2,8.654255E-1,3.174061E-1,1.1449538E0,2.7932892E-2,2.3739281E-1,-1.613128E-2,5.261341E-1,2.2925027E-3,1.021749E0,4.053246E-2,6.137654E-2,-1.9252092E-2,2.2608736E0,3.9493978E-1,4.1965222E-1,-2.410479E-2,1.364039E-1,6.255468E-2,-1.3568784E-2,2.855411E-2,1.4912208E-3,-2.5287056E-2,1.1730214E-1,1.1438073E-2,-2.3023164E-2,4.0479496E-2,-9.959677E-3,-2.4698444E-2,2.0881593E-1,7.08982E-2,1.2819575E-1,8.468653E-3,1.7500477E-2,-2.0880459E-2,6.1304748E-2,-1.3802755E-2],"split_indices":[1,9,9,6,29,15,0,5,2,6,6,13,0,29,13,25,7,27,0,29,23,0,0,27,19,5,0,0,0,7,23,25,0,0,0,27,27,25,0,0,0,0,0,0,0,0,0,0,0,0,0,0,0,0,0,0,0,0,0],"split_type":[0,0,0,0,0,0,0,0,0,0,0,0,0,0,0,0,0,0,0,0,0,0,0,0,0,0,0,0,0,0,0,0,0,0,0,0,0,0,0,0,0,0,0,0,0,0,0,0,0,0,0,0,0,0,0,0,0,0,0],"sum_hessian":[3.6481497E2,1.8935931E2,1.7545566E2,1.4661751E2,4.274181E1,1.7436592E2,1.089737E0,8.649534E1,6.0122166E1,1.6881765E1,2.5860046E1,5.014562E0,1.6935136E2,5.1652714E1,3.4842625E1,3.86017E0,5.6261997E1,1.2631083E1,4.250683E0,1.3376322E1,1.2483725E1,3.962126E0,1.0524359E0,2.557585E1,2.6076864E1,3.3517143E1,1.3254826E0,2.28469E0,1.5754801E0,8.519223E0,4.7742775E1,1.1005525E1,1.6255578E0,1.5751833E0,2.6754997E0,7.7846932E0,5.5916286E0,2.1051433E0,1.0378581E1,1.4489674E1,1.1086176E1,1.6604177E1,9.472687E0,1.0689842E1,2.2827301E1,1.2667725E0,1.0179174E0,6.882704E0,1.6365192E0,3.642513E0,4.410026E1,8.6537285E0,2.351796E0,6.5980744E0,1.1866187E0,1.8762563E0,3.7153723E0,1.008802E0,1.0963413E0],"tree_param":{"num_deleted":"0","num_feature":"32","num_nodes":"59","size_leaf_vector":"1"}},{"base_weights":[-2.8260506E-4,7.075998E-1,-8.15628E-1,7.270963E-1,-7.306926E-1,-8.3395034E-1,6.846179E-1,7.6934433E-1,3.185258E-1,-3.980523E-2,-6.189056E-3,-8.372336E-1,2.8359244E-2,4.1453224E-2,7.917704E-3,6.418695E-1,8.475155E-1,6.776795E-2,6.9840956E-1,-4.1917875E-2,-6.4021624E-3,3.770568E-1,7.5946766E-1,8.7543494E-1,7.2064227E-1,-1.9689587E-1,4.4454274E-1,-2.666014E-2,7.6624364E-1,1.790038E-3,3.7103195E-2,3.9193407E-2,2.2913287E-3,4.3982506E-2,5.9064114E-3,2.6479581E-2,4.338236E-2,-1.8363094E-2,3.1559616E-2,-3.0056346E-2,3.4844767E-2,-3.0308539E-2,2.823301E-2,6.082595E-3,4.08004E-2],"categories":[],"categories_nodes":[],"categories_segments":[],"categories_sizes":[],"default_left":[0,0,0,0,0,0,0,0,0,0,0,0,0,0,0,0,0,0,0,0,0,0,0,0,0,0,0,0,0,0,0,0,0,0,0,0,0,0,0,0,0,0,0,0,0],"id":9,"left_children":[1,3,5,7,9,11,13,15,17,-1,-1,19,-1,-1,-1,21,23,25,27,-1,-1,29,31,33,35,37,39,41,43,-1,-1,-1,-1,-1,-1,-1,-1,-1,-1,-1,-1,-1,-1,-1,-1],"loss_changes":[1.02048584E3,2.7070251E1,2.3157227E1,1.5881439E1,4.2374563E-1,4.2111816E0,6.640897E-1,7.886261E0,8.455439E0,0E0,0E0,5.388794E-1,0E0,0E0,0E0,9.856628E0,1.2156372E0,5.5596275E0,1.760786E0,0E0,0E0,1.2696885E1,3.8743744E0,1.2451782E0,2.3400307E0,4.876993E0,6.474667E0,1.7107772E0,9.3974686E-1,0E0,0E0,0E0,0E0,0E0,0E0,0E0,0E0,0E0,0E0,0E0,0E0,0E0,0E0,0E0,0E0],"parents":[2147483647,0,0,1,1,2,2,3,3,4,4,5,5,6,6,7,7,8,8,11,11,15,15,16,16,17,17,18,18,21,21,22,22,23,23,24,24,25,25,26,26,27,27,28,28],"right_children":[2,4,6,8,10,12,14,16,18,-1,-1,20,-1,-1,-1,22,24,26,28,-1,-1,30,32,34,36,38,40,42,44,-1,-1,-1,-1,-1,-1,-1,-1,-1,-1,-1,-1,-1,-1,-1,-1],"split_conditions":[4.131907E-1,5.3891575E-1,7.941723E-1,6.1509514E-1,1.3676251E0,5.4626817E-1,8.6269367E-1,4.5231566E-1,1.0719486E0,-3.980523E-2,-6.189056E-3,2.2825327E0,2.8359244E-2,4.1453224E-2,7.917704E-3,9.6860707E-1,7.5934696E-1,8.522734E-1,5.0391436E-1,-4.1917875E-2,-6.4021624E-3,5.3957564E-1,1.1128447E0,2.010102E0,5.5456465E-1,5.394313E-1,1.937283E-1,1.8056717E0,6.592425E-1,1.790038E-3,3.7103195E-2,3.9193407E-2,2.2913287E-3,4.3982506E-2,5.9064114E-3,2.6479581E-2,4.338236E-2,-1.8363094E-2,3.1559616E-2,-3.0056346E-2,3.4844767E-2,-3.0308539E-2,2.823301E-2,6.082595E-3,4.08004E-2],"split_indices":[22,8,16,19,27,2,9,29,24,0,0,27,0,0,0,28,9,27,16,0,0,25,9,31,6,6,25,24,19,0,0,0,0,0,0,0,0,0,0,0,0,0,0,0,0],"split_type":[0,0,0,0,0,0,0,0,0,0,0,0,0,0,0,0,0,0,0,0,0,0,0,0,0,0,0,0,0,0,0,0,0,0,0,0,0,0,0,0,0,0,0,0,0],"sum_hessian":[1.7660894E3,9.4541376E2,8.2067554E2,9.332577E2,1.2156113E1,8.112124E2,9.463131E0,8.4499805E2,8.825964E1,1.0692014E1,1.4640985E0,8.097175E2,1.4949112E0,6.973655E0,2.4894757E0,3.2470615E2,5.202919E2,5.387538E1,3.4384266E1,8.0825446E2,1.4630369E0,1.0114647E2,2.2355966E2,4.2161273E2,9.867915E1,3.1926304E1,2.1949076E1,2.9935539E0,3.139071E1,5.2841476E1,4.8304993E1,2.1607338E2,7.4862795E0,4.1911835E2,2.49438E0,4.4912502E1,5.3766655E1,2.6940266E1,4.9860387E0,3.9984927E0,1.7950583E1,1.4991907E0,1.4943632E0,2.4966338E0,2.8894077E1],"tree_param":{"num_deleted":"0","num_feature":"32","num_nodes":"45","size_leaf_vector":"1"}},{"base_weights":[1.6606874E-3,-8.3985543E-1,9.05325E-1,-8.495105E-1,4.5554903E-1,9.1042876E-1,-3.1071488E-2,-8.5337114E-1,-5.1692385E-2,3.9443027E-2,-2.6669933E-2,3.0912653E-1,4.562637E-2,-4.2719457E-2,-1.691435E-2,3.246459E-2,-3.211346E-2,-9.861102E-3,3.136884E-2],"categories":[],"categories_nodes":[],"categories_segments":[],"categories_sizes":[],"default_left":[0,0,0,0,0,0,0,0,0,0,0,0,0,0,0,0,0,0,0],"id":10,"left_children":[1,3,5,7,9,11,-1,13,15,-1,-1,17,-1,-1,-1,-1,-1,-1,-1],"loss_changes":[1.3511404E3,1.189386E1,7.2417603E0,2.7697144E0,2.8789377E0,7.959595E-1,0E0,1.876831E-1,2.679006E0,0E0,0E0,8.462347E-1,0E0,0E0,0E0,0E0,0E0,0E0,0E0],"parents":[2147483647,0,0,1,1,2,2,3,3,4,4,5,5,7,7,8,8,11,11],"right_children":[2,4,6,8,10,12,-1,14,16,-1,-1,18,-1,-1,-1,-1,-1,-1,-1],"split_conditions":[6.6999745E-1,1.2235057E0,3.2763293E-1,1.6812704E0,8.036345E-3,7.251915E-1,-3.1071488E-2,5.401694E-1,8.036345E-3,3.9443027E-2,-2.6669933E-2,3.0461442E-1,4.562637E-2,-4.2719457E-2,-1.691435E-2,3.246459E-2,-3.211346E-2,-9.861102E-3,3.136884E-2],"split_indices":[10,1,2,11,2,10,0,10,2,0,0,0,0,0,0,0,0,0,0],"split_type":[0,0,0,0,0,0,0,0,0,0,0,0,0,0,0,0,0,0,0],"sum_hessian":[1.7747687E3,9.1902185E2,8.557469E2,9.1256445E2,6.4573865E0,8.532981E2,2.4487972E0,9.081005E2,4.4639325E0,4.980948E0,1.4764383E0,3.4835374E0,8.498146E2,9.0565186E2,2.4486847E0,1.9957092E0,2.468223E0,1.491228E0,1.9923095E0],"tree_param":{"num_deleted":"0","num_feature":"32","num_nodes":"19","size_leaf_vector":"1"}},{"base_weights":[6.609502E-3,4.7067901E-1,-4.829329E-1,1.0646977E0,3.29882E-2,-5.054043E-1,9.3256295E-1,2.3684208E0,3.070305E-1,-9.2387415E-2,1.4208069E0,-2.402923E-1,-2.6116077E-2,8.625149E-2,-1.3824262E-2,2.754341E0,-2.242403E-2,8.5799587E-1,-1.3199091E-1,-2.7407968E-1,4.9998835E-1,2.2276287E0,-1.4525445E-1,4.1094118E-1,-2.3595622E-2,3.148685E0,8.244781E-1,-1.9342503E-2,2.9079711E-2,1.4802684E0,-1.583039E-1,-4.4636938E-1,4.174885E-1,8.034765E-2,-3.831354E-1,1.4584669E0,-1.0829295E-1,3.078489E0,-1.5471794E-2,-1.7508605E-2,1.1422E-2,6.095158E-2,-1.6770631E-2,1.729468E-1,5.348135E-2,-5.927963E-3,8.8624954E-2,9.712314E-2,-7.6976093E-3,-2.2412049E-2,1.805689E-2,-2.4799127E-2,6.652783E-4,5.775946E-2,-1.45639675E-2,2.888838E-2,-1.1989409E-2,-2.4531974E-2,-6.104595E-3,1.16988376E-1,-8.355216E-3,2.7003128E-2,-1.9712798E-2,1.7967807E-1,3.500964E-2],"categories":[],"categories_nodes":[],"categories_segments":[],"categories_sizes":[],"default_left":[0,0,0,0,0,0,0,0,0,0,0,0,0,0,0,0,0,0,0,0,0,0,0,0,0,0,0,0,0,0,0,0,0,0,0,0,0,0,0,0,0,0,0,0,0,0,0,0,0,0,0,0,0,0,0,0,0,0,0,0,0,0,0,0,0],"id":11,"left_children":[1,3,5,7,9,11,13,15,17,19,21,23,-1,-1,-1,25,27,29,31,33,35,37,39,41,-1,43,45,-1,-1,47,49,51,53,55,57,59,61,63,-1,-1,-1,-1,-1,-1,-1,-1,-1,-1,-1,-1,-1,-1,-1,-1,-1,-1,-1,-1,-1,-1,-1,-1,-1,-1,-1],"loss_changes":[8.196193E1,4.8116207E1,6.0561066E0,7.685067E1,1.8864468E1,6.525459E-1,3.4425957E0,2.6558578E1,1.240575E1,1.0865764E1,1.1671938E1,2.0429256E0,0E0,0E0,0E0,1.6227524E1,1.321875E0,1.4571079E1,5.221796E0,3.0042982E0,1.4005766E1,1.3880589E1,3.8573602E-1,2.6708813E0,0E0,9.318817E0,5.17317E0,0E0,0E0,1.0992401E1,1.5945256E0,4.40475E-1,6.153267E0,3.1526594E0,1.5958805E0,1.3700737E1,3.0795147E0,3.0895004E0,0E0,0E0,0E0,0E0,0E0,0E0,0E0,0E0,0E0,0E0,0E0,0E0,0E0,0E0,0E0,0E0,0E0,0E0,0E0,0E0,0E0,0E0,0E0,0E0,0E0,0E0,0E0],"parents":[2147483647,0,0,1,1,2,2,3,3,4,4,5,5,6,6,7,7,8,8,9,9,10,10,11,11,15,15,16,16,17,17,18,18,19,19,20,20,21,21,22,22,23,23,25,25,26,26,29,29,30,30,31,31,32,32,33,33,34,34,35,35,36,36,37,37],"right_children":[2,4,6,8,10,12,14,16,18,20,22,24,-1,-1,-1,26,28,30,32,34,36,38,40,42,-1,44,46,-1,-1,48,50,52,54,56,58,60,62,64,-1,-1,-1,-1,-1,-1,-1,-1,-1,-1,-1,-1,-1,-1,-1,-1,-1,-1,-1,-1,-1,-1,-1,-1,-1,-1,-1],"split_conditions":[6.371905E-2,8.522734E-1,1.3285372E0,5.9702563E-1,7.395772E-1,4.3865014E-3,1.8182999E0,4.1238993E-1,3.5489413E-1,5.944461E-1,1.0618651E0,3.3373627E-1,-2.6116077E-2,8.625149E-2,-1.3824262E-2,9.872547E-1,1.8200123E-1,1.1747566E0,6.095617E-1,1.3676251E0,6.450371E-1,1.1449538E0,2.022713E0,6.185724E-1,-2.3595622E-2,4.8762584E-1,3.6134462E0,-1.9342503E-2,2.9079711E-2,1.4436638E-1,2.7166715E0,2.8292928E0,4.788628E-1,5.3550947E-1,2.5904126E0,2.3094332E-1,2.4786904E-2,6.6563576E-1,-1.5471794E-2,-1.7508605E-2,1.1422E-2,6.095158E-2,-1.6770631E-2,1.729468E-1,5.348135E-2,-5.927963E-3,8.8624954E-2,9.712314E-2,-7.6976093E-3,-2.2412049E-2,1.805689E-2,-2.4799127E-2,6.652783E-4,5.775946E-2,-1.45639675E-2,2.888838E-2,-1.1989409E-2,-2.4531974E-2,-6.104595E-3,1.16988376E-1,-8.355216E-3,2.7003128E-2,-1.9712798E-2,1.7967807E-1,3.500964E-2],"split_indices":[1,27,9,25,3,12,7,5,6,9,29,6,0,0,0,29,25,29,9,27,29,5,13,29,0,17,2,0,0,17,23,7,29,0,7,25,6,29,0,0,0,0,0,0,0,0,0,0,0,0,0,0,0,0,0,0,0,0,0,0,0,0,0,0,0],"split_type":[0,0,0,0,0,0,0,0,0,0,0,0,0,0,0,0,0,0,0,0,0,0,0,0,0,0,0,0,0,0,0,0,0,0,0,0,0,0,0,0,0,0,0,0,0,0,0,0,0,0,0,0,0,0,0,0,0,0,0,0,0,0,0,0,0],"sum_hessian":[3.587765E2,1.8419984E2,1.7457664E2,7.75369E1,1.0666293E2,1.7248138E2,2.0952466E0,2.7717419E1,4.981949E1,9.868147E1,7.9814596E0,1.1258104E1,1.6122328E2,1.0078728E0,1.0873737E0,2.3734295E1,3.9831235E0,2.1669832E1,2.8149654E1,7.592977E1,2.2751703E1,4.9888206E0,2.9926393E0,2.750493E0,8.507612E0,1.9182934E1,4.5513616E0,2.7085168E0,1.2746068E0,1.3157233E1,8.512599E0,1.8024685E1,1.012497E1,1.7927912E1,5.8001858E1,8.290517E0,1.4461185E1,3.576093E0,1.4127275E0,1.9734377E0,1.0192015E0,1.0165454E0,1.7339475E0,1.6114515E1,3.068419E0,2.720301E0,1.8310606E0,1.0109438E1,3.047795E0,5.551171E0,2.9614286E0,1.6197489E1,1.8271956E0,4.6525946E0,5.4723754E0,6.705029E0,1.1222882E1,4.045994E1,1.7541918E1,5.091058E0,3.199459E0,4.1541133E0,1.0307073E1,2.5194664E0,1.0566267E0],"tree_param":{"num_deleted":"0","num_feature":"32","num_nodes":"65","size_leaf_vector":"1"}},{"base_weights":[-2.0347922E-3,7.004304E-1,-8.077444E-1,5.57534E-1,7.992128E-1,-4.053335E-2,1.9521128E-3,3.3772057E-1,7.3719084E-1,8.101076E-1,-1.7916639E-1,-2.8206795E-2,2.8213743E-2,9.5300876E-2,6.7746836E-1,7.6652753E-1,-3.4036424E-2,8.288464E-1,4.3978545E-1,-3.9094668E-2,3.2590285E-2,-1.0852819E-2,6.145038E-1,7.3039025E-1,-1.989347E-1,8.255636E-1,4.4374728E-1,8.334788E-1,2.3532507E-1,1.2176081E-1,7.727194E-1,2.0403028E-3,-3.978513E-2,4.007499E-2,-2.9933764E-2,3.8182106E-2,-2.4952536E-2,-3.4808442E-2,2.8865734E-2,4.176835E-2,-1.2034122E-3,-1.8504172E-3,3.6565017E-2,3.8660385E-2,4.377954E-2,3.0985886E-2,-8.147213E-3,-3.794298E-2,1.925694E-2,7.4399184E-3,4.1784924E-2],"categories":[],"categories_nodes":[],"categories_segments":[],"categories_sizes":[],"default_left":[0,0,0,0,0,0,0,0,0,0,0,0,0,0,0,0,0,0,0,0,0,0,0,0,0,0,0,0,0,0,0,0,0,0,0,0,0,0,0,0,0,0,0,0,0,0,0,0,0,0,0],"id":12,"left_children":[1,3,5,7,9,-1,11,13,15,17,19,-1,-1,21,23,25,-1,27,29,-1,-1,31,33,35,37,39,41,43,45,47,49,-1,-1,-1,-1,-1,-1,-1,-1,-1,-1,-1,-1,-1,-1,-1,-1,-1,-1,-1,-1],"loss_changes":[1.0059096E3,1.2956879E1,1.9604492E0,1.520739E1,6.104553E0,0E0,1.5835906E0,1.4584925E1,9.445267E0,3.4737244E0,4.003586E0,0E0,0E0,5.7918973E0,3.5729446E0,3.647606E0,0E0,1.24823E0,2.9521604E0,0E0,0E0,3.6056802E0,4.5259266E0,3.2390022E0,2.3296394E0,1.4936447E0,4.828465E0,6.4501953E-1,9.371531E-1,3.9804523E0,4.2060566E-1,0E0,0E0,0E0,0E0,0E0,0E0,0E0,0E0,0E0,0E0,0E0,0E0,0E0,0E0,0E0,0E0,0E0,0E0,0E0,0E0],"parents":[2147483647,0,0,1,1,2,2,3,3,4,4,6,6,7,7,8,8,9,9,10,10,13,13,14,14,15,15,17,17,18,18,21,21,22,22,23,23,24,24,25,25,26,26,27,27,28,28,29,29,30,30],"right_children":[2,4,6,8,10,-1,12,14,16,18,20,-1,-1,22,24,26,-1,28,30,-1,-1,32,34,36,38,40,42,44,46,48,50,-1,-1,-1,-1,-1,-1,-1,-1,-1,-1,-1,-1,-1,-1,-1,-1,-1,-1,-1,-1],"split_conditions":[6.6999745E-1,8.522734E-1,2.1480241E-1,3.7467074E-1,2.0576699E0,-4.053335E-2,3.3142424E-1,8.725071E-1,1.114522E0,8.33654E-1,1.1747566E0,-2.8206795E-2,2.8213743E-2,5.4611385E-1,3.9569404E0,1.0530869E0,-3.4036424E-2,2.455982E-1,7.421124E-1,-3.9094668E-2,3.2590285E-2,1.4469796E0,2.0388366E-1,6.65885E-1,2.1965032E0,5.130151E-1,4.788628E-1,3.3463188E-2,1.9190833E-4,1.3713682E-1,5.550743E-1,2.0403028E-3,-3.978513E-2,4.007499E-2,-2.9933764E-2,3.8182106E-2,-2.4952536E-2,-3.4808442E-2,2.8865734E-2,4.176835E-2,-1.2034122E-3,-1.8504172E-3,3.6565017E-2,3.8660385E-2,4.377954E-2,3.0985886E-2,-8.147213E-3,-3.794298E-2,1.925694E-2,7.4399184E-3,4.1784924E-2],"split_indices":[10,27,7,6,9,0,5,29,20,3,29,0,0,5,7,9,0,8,5,0,0,9,21,1,0,8,29,6,13,29,0,0,0,0,0,0,0,0,0,0,0,0,0,0,0,0,0,0,0,0,0],"split_type":[0,0,0,0,0,0,0,0,0,0,0,0,0,0,0,0,0,0,0,0,0,0,0,0,0,0,0,0,0,0,0,0,0,0,0,0,0,0,0,0,0,0,0,0,0,0,0,0,0,0,0],"sum_hessian":[1.7752792E3,9.484741E2,8.2680505E2,3.9038943E2,5.5808466E2,8.238303E2,2.974762E0,1.7686801E2,2.1352142E2,5.5210864E2,5.976037E0,1.4808111E0,1.4939508E0,1.039659E2,7.2902115E1,2.0964331E2,3.8781123E0,5.243382E2,2.7770435E1,3.4979439E0,2.4780934E0,8.7130684E1,1.6835217E1,6.890771E1,3.9944098E0,1.7591164E2,3.3731674E1,5.198763E2,4.461911E0,1.4901739E1,1.2868696E1,8.2639366E1,4.491321E0,1.4880862E1,1.954354E0,6.746198E1,1.4457254E0,2.4976678E0,1.4967421E0,1.7392166E2,1.9899778E0,1.2950772E1,2.0780905E1,2.2179767E2,2.9807864E2,1.9875684E0,2.474343E0,2.9976516E0,1.1904088E1,1.4881865E0,1.138051E1],"tree_param":{"num_deleted":"0","num_feature":"32","num_nodes":"51","size_leaf_vector":"1"}},{"base_weights":[4.17785E-3,-8.1383926E-1,8.709801E-1,-8.232915E-1,3.8238905E-2,8.7682253E-1,-3.1762302E-2,-8.2625115E-1,2.9079998E-2,4.0524274E-1,4.393987E-2,-4.140887E-2,1.0300121E-2,-9.547003E-3,3.376813E-2],"categories":[],"categories_nodes":[],"categories_segments":[],"categories_sizes":[],"default_left":[0,0,0,0,0,0,0,0,0,0,0,0,0,0,0],"id":13,"left_children":[1,3,5,7,-1,9,-1,11,-1,13,-1,-1,-1,-1,-1],"loss_changes":[1.2589934E3,1.4260376E1,8.143311E0,4.258362E0,0E0,4.4403076E-1,0E0,1.97406E0,0E0,1.004808E0,0E0,0E0,0E0,0E0,0E0],"parents":[2147483647,0,0,1,1,2,2,3,3,5,5,7,7,9,9],"right_children":[2,4,6,8,-1,10,-1,12,-1,14,-1,-1,-1,-1,-1],"split_conditions":[6.14917E-1,1.4704804E0,5.4626817E-1,1.5885999E0,3.8238905E-2,2.169815E-1,-3.1762302E-2,1.4294736E0,2.9079998E-2,9.8528874E-1,4.393987E-2,-4.140887E-2,1.0300121E-2,-9.547003E-3,3.376813E-2],"split_indices":[10,30,2,20,0,22,0,1,0,5,0,0,0,0,0],"split_type":[0,0,0,0,0,0,0,0,0,0,0,0,0,0,0],"sum_hessian":[1.7735836E3,9.12501E2,8.610827E2,9.0754535E2,4.9555874E0,8.581719E2,2.9108524E0,9.0604846E2,1.496913E0,4.438711E0,8.5373315E2,9.045582E2,1.4902482E0,1.4754238E0,2.9632874E0],"tree_param":{"num_deleted":"0","num_feature":"32","num_nodes":"15","size_leaf_vector":"1"}},{"base_weights":[-3.9671394E-3,4.0799913E-1,-2.60721E-2,1.15052834E-1,1.1975399E0,4.3126106E-1,-3.157123E-1,1.9305564E0,2.993709E-1,1.2133553E0,5.3817444E-3,-3.8815916E-2,-4.6532938E-1,2.349478E0,-2.6333797E-1,1.0389262E0,-1.0436297E-1,2.0562375E0,2.2531092E-1,-1.243257E-1,9.028888E-1,8.738608E-1,-3.8457665E-1,-2.563992E-2,2.2921808E-1,2.713141E0,3.0327026E-2,-2.0900412E-2,1.1654974E-2,1.7228876E0,-1.7170656E-1,-2.5054988E-1,4.529865E-2,1.2502283E-1,-6.071209E-3,-1.3613896E-2,4.755926E-2,-1.0599053E-2,7.590378E-2,-1.7855724E-2,7.362531E-2,6.710299E-2,-1.6744038E-2,1.1653278E-2,-2.1781158E-2,3.472295E-2,-1.4761488E-2,1.5068302E-1,2.0651814E-2,-1.9091958E-2,3.5386834E-2,1.256819E-1,1.28508285E-2,-1.8380536E-2,1.1329762E-2,2.8007586E-2,-1.7950632E-2],"categories":[],"categories_nodes":[],"categories_segments":[],"categories_sizes":[],"default_left":[0,0,0,0,0,0,0,0,0,0,0,0,0,0,0,0,0,0,0,0,0,0,0,0,0,0,0,0,0,0,0,0,0,0,0,0,0,0,0,0,0,0,0,0,0,0,0,0,0,0,0,0,0,0,0,0,0],"id":14,"left_children":[1,3,-1,5,7,9,11,13,15,17,19,21,23,25,27,29,31,33,35,37,39,41,43,-1,45,47,49,-1,-1,51,53,55,-1,-1,-1,-1,-1,-1,-1,-1,-1,-1,-1,-1,-1,-1,-1,-1,-1,-1,-1,-1,-1,-1,-1,-1,-1],"loss_changes":[7.8E1,4.698005E1,0E0,2.0525803E1,3.5648148E1,2.8886847E1,2.6310568E0,2.829541E1,7.844691E0,2.500277E1,6.7673683E0,7.758899E0,1.4832153E0,2.1328278E1,5.3721553E-1,7.947567E0,2.8366585E0,1.6147476E1,5.7491007E0,7.639312E0,5.793695E0,4.2798853E0,6.6127706E-1,0E0,1.0202101E0,1.3916504E1,1.5134017E0,0E0,0E0,6.3035946E0,4.145638E-1,1.6272459E0,0E0,0E0,0E0,0E0,0E0,0E0,0E0,0E0,0E0,0E0,0E0,0E0,0E0,0E0,0E0,0E0,0E0,0E0,0E0,0E0,0E0,0E0,0E0,0E0,0E0],"parents":[2147483647,0,0,1,1,3,3,4,4,5,5,6,6,7,7,8,8,9,9,10,10,11,11,12,12,13,13,14,14,15,15,16,16,17,17,18,18,19,19,20,20,21,21,22,22,24,24,25,25,26,26,29,29,30,30,31,31],"right_children":[2,4,-1,6,8,10,12,14,16,18,20,22,24,26,28,30,32,34,36,38,40,42,44,-1,46,48,50,-1,-1,52,54,56,-1,-1,-1,-1,-1,-1,-1,-1,-1,-1,-1,-1,-1,-1,-1,-1,-1,-1,-1,-1,-1,-1,-1,-1,-1],"split_conditions":[2.592576E-1,6.095617E-1,-2.60721E-2,3.459496E-1,5.7863444E-1,8.654255E-1,3.432668E-1,1.0719486E0,2.0599594E0,3.0331317E-1,7.395772E-1,8.815566E-1,1.2285343E0,2.156608E0,9.315357E-3,1.0773831E-1,2.0576699E0,4.3865014E-3,5.3789943E-1,2.010102E0,2.3923427E-1,8.95934E-1,2.5873852E-1,-2.563992E-2,9.3677056E-1,1.4683126E0,5.487934E-2,-2.0900412E-2,1.1654974E-2,1.8058573E-1,1.8588737E0,6.4989614E-1,4.529865E-2,1.2502283E-1,-6.071209E-3,-1.3613896E-2,4.755926E-2,-1.0599053E-2,7.590378E-2,-1.7855724E-2,7.362531E-2,6.710299E-2,-1.6744038E-2,1.1653278E-2,-2.1781158E-2,3.472295E-2,-1.4761488E-2,1.5068302E-1,2.0651814E-2,-1.9091958E-2,3.5386834E-2,1.256819E-1,1.28508285E-2,-1.8380536E-2,1.1329762E-2,2.8007586E-2,-1.7950632E-2],"split_indices":[22,9,0,6,6,27,25,24,7,24,3,27,31,0,3,17,9,12,19,31,31,0,16,0,0,28,28,0,0,0,16,6,0,0,0,0,0,0,0,0,0,0,0,0,0,0,0,0,0,0,0,0,0,0,0,0,0],"split_type":[0,0,0,0,0,0,0,0,0,0,0,0,0,0,0,0,0,0,0,0,0,0,0,0,0,0,0,0,0,0,0,0,0,0,0,0,0,0,0,0,0,0,0,0,0,0,0,0,0,0,0,0,0,0,0,0,0],"sum_hessian":[3.638863E2,2.0271483E2,1.6117148E2,1.4869112E2,5.4023697E1,8.574664E1,6.294448E1,2.9113811E1,2.4909887E1,2.9578665E1,5.6167976E1,2.2522154E1,4.042233E1,2.4386349E1,4.7274623E0,8.240936E0,1.6668951E1,1.5378466E1,1.4200199E1,4.982828E1,6.3396916E0,5.768405E0,1.675375E1,3.808133E1,2.3409972E0,2.0933855E1,3.4524944E0,3.7249117E0,1.0025507E0,4.995525E0,3.245411E0,1.5218918E1,1.4500331E0,1.2649812E1,2.7286541E0,8.795652E0,5.404547E0,4.813048E1,1.6978035E0,2.0898879E0,4.249804E0,4.078375E0,1.69003E0,1.0067478E0,1.5747002E1,1.0687399E0,1.2722573E0,1.824043E1,2.6934237E0,2.4177513E0,1.034743E0,2.7807183E0,2.2148066E0,2.2270799E0,1.0183309E0,1.3044419E0,1.3914475E1],"tree_param":{"num_deleted":"0","num_feature":"32","num_nodes":"57","size_leaf_vector":"1"}},{"base_weights":[8.703097E-3,6.680041E-1,-7.8362286E-1,6.7913806E-1,-5.524417E-1,-7.866903E-1,1.4470795E-2,5.775021E-1,7.954753E-1,-3.626127E-2,1.048959E-2,-1.45445345E-2,-3.9391246E-2,3.166263E-1,7.055734E-1,8.1429785E-1,6.058165E-1,-5.7576634E-2,5.6843287E-1,7.4146986E-1,3.3372274E-1,8.1605464E-1,9.99339E-3,1.9723251E-1,7.62954E-1,-2.5516385E-2,1.2142676E-2,3.2634087E-2,4.6202275E-3,3.8812395E-2,2.8580416E-2,3.199334E-2,-3.9193123E-3,4.11014E-2,2.7658267E-2,2.5977263E-2,-2.7887737E-2,4.095136E-2,8.684505E-3],"categories":[],"categories_nodes":[],"categories_segments":[],"categories_sizes":[],"default_left":[0,0,0,0,0,0,0,0,0,0,0,0,0,0,0,0,0,0,0,0,0,0,0,0,0,0,0,0,0,0,0,0,0,0,0,0,0,0,0],"id":15,"left_children":[1,3,5,7,9,11,-1,13,15,-1,-1,-1,-1,17,19,21,23,25,27,29,31,33,-1,35,37,-1,-1,-1,-1,-1,-1,-1,-1,-1,-1,-1,-1,-1,-1],"loss_changes":[9.105162E2,1.3302643E1,2.8334045E0,1.0693207E1,1.3574939E0,2.1502686E-1,0E0,1.6717865E1,1.0672302E0,0E0,0E0,0E0,0E0,1.593611E1,4.281357E0,2.63031E-1,2.6342583E0,9.4817505E0,3.9894905E0,1.3793182E0,4.0480223E0,1.6290283E-1,0E0,3.5496454E0,8.812866E-1,0E0,0E0,0E0,0E0,0E0,0E0,0E0,0E0,0E0,0E0,0E0,0E0,0E0,0E0],"parents":[2147483647,0,0,1,1,2,2,3,3,4,4,5,5,7,7,8,8,13,13,14,14,15,15,16,16,17,17,18,18,19,19,20,20,21,21,23,23,24,24],"right_children":[2,4,6,8,10,12,-1,14,16,-1,-1,-1,-1,18,20,22,24,26,28,30,32,34,-1,36,38,-1,-1,-1,-1,-1,-1,-1,-1,-1,-1,-1,-1,-1,-1],"split_conditions":[6.9268733E-1,1.3257343E0,3.2763293E-1,8.318393E-1,7.3703885E-2,7.251915E-1,1.4470795E-2,6.442106E-1,6.036647E-1,-3.626127E-2,1.048959E-2,-1.45445345E-2,-3.9391246E-2,4.7251073E-1,8.372528E-1,7.5441295E-1,7.843086E-1,5.995066E-1,7.628754E-1,2.0916113E-1,7.7434704E-3,9.001905E-1,9.99339E-3,7.879663E-1,6.2701505E-1,-2.5516385E-2,1.2142676E-2,3.2634087E-2,4.6202275E-3,3.8812395E-2,2.8580416E-2,3.199334E-2,-3.9193123E-3,4.11014E-2,2.7658267E-2,2.5977263E-2,-2.7887737E-2,4.095136E-2,8.684505E-3],"split_indices":[10,30,2,29,28,10,0,28,19,0,0,0,0,25,9,30,25,0,19,19,19,3,0,31,5,0,0,0,0,0,0,0,0,0,0,0,0,0,0],"split_type":[0,0,0,0,0,0,0,0,0,0,0,0,0,0,0,0,0,0,0,0,0,0,0,0,0,0,0,0,0,0,0,0,0,0,0,0,0,0,0],"sum_hessian":[1.7410085E3,9.5036163E2,7.906469E2,9.4220953E2,8.152119E0,7.8865924E2,1.9876368E0,5.0606158E2,4.3614792E2,6.685252E0,1.4668665E0,2.3882718E0,7.86271E2,1.6777776E2,3.3828384E2,3.9377457E2,4.2373356E1,6.7797325E1,9.998044E1,3.0759616E2,3.0687672E1,3.9232468E2,1.4498869E0,1.23962345E1,2.9977123E1,2.676443E1,4.1032898E1,8.463109E1,1.5349349E1,2.523577E2,5.523847E1,1.7290436E1,1.3397236E1,3.8152872E2,1.0795978E1,8.906007E0,3.4902277E0,2.7016382E1,2.9607406E0],"tree_param":{"num_deleted":"0","num_feature":"32","num_nodes":"39","size_leaf_vector":"1"}},{"base_weights":[-8.264092E-3,-7.807886E-1,8.3123034E-1,-8.017205E-1,6.647071E-1,8.4154993E-1,-5.7861644E-1,-4.0222492E-2,7.1353214E-3,3.9148293E-2,-9.357269E-3,8.471557E-1,-2.9925985E-2,-3.348009E-2,-7.0901485E-3,3.3450475E-1,4.2443044E-2,-7.540164E-3,3.1051377E-2],"categories":[],"categories_nodes":[],"categories_segments":[],"categories_sizes":[],"default_left":[0,0,0,0,0,0,0,0,0,0,0,0,0,0,0,0,0,0,0],"id":16,"left_children":[1,3,5,7,9,11,13,-1,-1,-1,-1,15,-1,-1,-1,17,-1,-1,-1],"loss_changes":[1.1410154E3,2.8255432E1,1.2753906E1,2.4439087E0,1.5191102E0,7.267456E0,1.7209768E-1,0E0,0E0,0E0,0E0,4.4561768E-1,0E0,0E0,0E0,7.078727E-1,0E0,0E0,0E0],"parents":[2147483647,0,0,1,1,2,2,3,3,4,4,5,5,6,6,11,11,15,15],"right_children":[2,4,6,8,10,12,14,-1,-1,-1,-1,16,-1,-1,-1,18,-1,-1,-1],"split_conditions":[6.128511E-1,8.855885E-1,7.435906E-2,1.8813705E0,8.036345E-3,5.4626817E-1,3.4621188E-1,-4.0222492E-2,7.1353214E-3,3.9148293E-2,-9.357269E-3,1.1883326E-1,-2.9925985E-2,-3.348009E-2,-7.0901485E-3,7.806644E-4,4.2443044E-2,-7.540164E-3,3.1051377E-2],"split_indices":[30,22,26,11,2,2,12,0,0,0,0,22,0,0,0,25,0,0,0],"split_type":[0,0,0,0,0,0,0,0,0,0,0,0,0,0,0,0,0,0,0],"sum_hessian":[1.7573864E3,9.1523413E2,8.421522E2,9.02609E2,1.2625122E1,8.364329E2,5.7193007E0,9.001559E2,2.4531393E0,1.11571E1,1.4680219E0,8.335997E2,2.833234E0,4.292316E0,1.4269847E0,3.4171996E0,8.301825E2,1.4443904E0,1.9728091E0],"tree_param":{"num_deleted":"0","num_feature":"32","num_nodes":"19","size_leaf_vector":"1"}},{"base_weights":[5.1984563E-2,5.005398E-1,-5.022305E-1,2.051878E-1,1.2315674E0,-2.6019653E-2,-1.4293781E-1,-2.0808527E-2,9.0227383E-1,1.679457E0,-2.1554288E-1,3.533153E-2,-3.394948E-1,3.085086E-1,-2.65833E-1,1.3940555E0,-2.9844305E-1,2.836808E0,9.1501886E-1,-3.9838776E-1,4.2623013E-1,-2.2625789E-2,1.1140944E-2,6.202254E-1,-3.6409748E-1,7.9035774E-2,-4.047428E-1,1.8470985E0,-2.8698355E-2,-2.3415629E-2,2.7789164E-1,3.0164244E0,8.696462E-3,1.6072067E0,1.8400946E-1,-2.3907036E-2,7.624054E-3,-1.658751E-2,6.0652044E-2,7.845573E-2,1.0441275E-3,-2.4358435E-2,1.4070541E-2,-5.1815105E-3,7.46731E-2,-2.2303121E-2,2.2188207E-2,1.0854309E-1,4.8329164E-3,3.5206337E-2,-2.1345329E-2,3.628564E-2,-1.3909213E-2,1.5645425E-1,3.5556573E-2,1.13944285E-1,2.790522E-2,-2.1197824E-3,6.88574E-2],"categories":[],"categories_nodes":[],"categories_segments":[],"categories_sizes":[],"default_left":[0,0,0,0,0,0,0,0,0,0,0,0,0,0,0,0,0,0,0,0,0,0,0,0,0,0,0,0,0,0,0,0,0,0,0,0,0,0,0,0,0,0,0,0,0,0,0,0,0,0,0,0,0,0,0,0,0,0,0],"id":17,"left_children":[1,3,5,7,9,-1,11,13,15,17,19,-1,21,23,25,27,29,31,33,35,37,-1,-1,39,41,43,45,47,49,-1,51,53,-1,55,57,-1,-1,-1,-1,-1,-1,-1,-1,-1,-1,-1,-1,-1,-1,-1,-1,-1,-1,-1,-1,-1,-1,-1,-1],"loss_changes":[8.978922E1,4.2835083E1,9.802284E-1,2.2599873E1,3.745317E1,0E0,1.7687027E0,8.895159E0,2.115133E1,3.6168083E1,1.8609744E0,0E0,6.1627495E-1,1.0092257E1,3.0578384E0,1.6224186E1,1.2097E0,7.583542E0,1.3802534E1,5.883883E-1,2.5963686E0,0E0,0E0,1.8465046E1,1.3710659E0,5.0567365E0,1.7823E0,1.0583122E1,2.3561704E0,0E0,9.832715E-1,1.8834534E0,0E0,8.721588E0,4.024068E0,0E0,0E0,0E0,0E0,0E0,0E0,0E0,0E0,0E0,0E0,0E0,0E0,0E0,0E0,0E0,0E0,0E0,0E0,0E0,0E0,0E0,0E0,0E0,0E0],"parents":[2147483647,0,0,1,1,2,2,3,3,4,4,6,6,7,7,8,8,9,9,10,10,12,12,13,13,14,14,15,15,16,16,17,17,18,18,19,19,20,20,23,23,24,24,25,25,26,26,27,27,28,28,30,30,31,31,33,33,34,34],"right_children":[2,4,6,8,10,-1,12,14,16,18,20,-1,22,24,26,28,30,32,34,36,38,-1,-1,40,42,44,46,48,50,-1,52,54,-1,56,58,-1,-1,-1,-1,-1,-1,-1,-1,-1,-1,-1,-1,-1,-1,-1,-1,-1,-1,-1,-1,-1,-1,-1,-1],"split_conditions":[2.2781092E-1,5.944461E-1,7.6648444E-1,2.986578E-1,1.3249586E0,-2.6019653E-2,8.36366E-1,4.1657063E-1,1.4813936E0,1.6605985E-1,7.863882E-2,3.533153E-2,6.312698E-1,7.804909E-1,6.846832E-1,1.2948169E0,3.160606E0,1.6960968E-1,2.781599E-1,2.369962E0,2.1250129E0,-2.2625789E-2,1.1140944E-2,2.1685842E-1,1.3604832E0,3.3065233E-1,2.2264981E0,2.1685842E-1,1.3455855E0,-2.3415629E-2,1.5711882E0,1.4543606E0,8.696462E-3,5.4801023E-1,1.5394738E0,-2.3907036E-2,7.624054E-3,-1.658751E-2,6.0652044E-2,7.845573E-2,1.0441275E-3,-2.4358435E-2,1.4070541E-2,-5.1815105E-3,7.46731E-2,-2.2303121E-2,2.2188207E-2,1.0854309E-1,4.8329164E-3,3.5206337E-2,-2.1345329E-2,3.628564E-2,-1.3909213E-2,1.5645425E-1,3.5556573E-2,1.13944285E-1,2.790522E-2,-2.1197824E-3,6.88574E-2],"split_indices":[1,9,23,19,29,0,23,29,25,6,3,0,31,5,23,29,23,15,29,29,16,0,0,6,31,9,26,6,16,0,24,25,0,0,13,0,0,0,0,0,0,0,0,0,0,0,0,0,0,0,0,0,0,0,0,0,0,0,0],"split_type":[0,0,0,0,0,0,0,0,0,0,0,0,0,0,0,0,0,0,0,0,0,0,0,0,0,0,0,0,0,0,0,0,0,0,0,0,0,0,0,0,0,0,0,0,0,0,0,0,0,0,0,0,0,0,0,0,0,0,0],"sum_hessian":[3.5917398E2,1.9856323E2,1.6061075E2,1.4233664E2,5.6226597E1,1.5245561E2,8.155148E0,1.0822129E2,3.4115353E1,4.281464E1,1.3411955E1,1.0446908E0,7.1104565E0,4.6058617E1,6.2162674E1,2.4088377E1,1.0026976E1,1.5952203E1,2.6862438E1,1.0733233E1,2.6787217E0,6.083065E0,1.0273913E0,3.152592E1,1.4532696E1,1.7972849E1,4.4189823E1,1.8044325E1,6.0440526E0,7.889149E0,2.137827E0,1.481981E1,1.132393E0,1.3181938E1,1.36805E1,9.491159E0,1.2420743E0,1.6589347E0,1.019787E0,1.1577764E1,1.9948156E1,1.2411618E1,2.121078E0,1.6737959E1,1.2348893E0,4.259012E1,1.5997076E0,1.5025088E1,3.019236E0,1.8574809E0,4.1865716E0,1.015201E0,1.1226261E0,1.3788607E1,1.0312036E0,7.3219185E0,5.8600197E0,1.230922E1,1.3712802E0],"tree_param":{"num_deleted":"0","num_feature":"32","num_nodes":"59","size_leaf_vector":"1"}},{"base_weights":[7.506684E-3,6.4838755E-1,-7.6064944E-1,5.103313E-1,7.401663E-1,-7.6380306E-1,2.729359E-2,1.147283E-1,6.6831857E-1,7.4968463E-1,-3.2963872E-2,-7.6554155E-1,-2.4047403E-3,-3.0491078E-1,4.874293E-1,6.809183E-1,-2.5383702E-2,7.7202845E-1,5.327766E-1,-3.935919E-1,-3.833037E-2,-4.0857893E-1,5.8496404E-1,5.8819765E-1,-4.1683775E-1,4.3092698E-1,7.171481E-1,7.8234786E-1,4.9532393E-1,2.2411078E-2,6.7691904E-1,-3.8200181E-3,-2.6200712E-2,-1.3997817E-2,-4.2096496E-2,8.965972E-3,3.386596E-2,3.0908573E-2,-1.3838775E-2,-3.8746223E-2,5.6916196E-3,3.433933E-2,4.2223944E-3,3.6215175E-2,-1.196432E-2,3.9425652E-2,2.5517596E-2,3.1864922E-2,-4.7707744E-3,-2.1328764E-2,2.8944368E-2,9.18258E-3,3.8261663E-2],"categories":[],"categories_nodes":[],"categories_segments":[],"categories_sizes":[],"default_left":[0,0,0,0,0,0,0,0,0,0,0,0,0,0,0,0,0,0,0,0,0,0,0,0,0,0,0,0,0,0,0,0,0,0,0,0,0,0,0,0,0,0,0,0,0,0,0,0,0,0,0,0,0],"id":18,"left_children":[1,3,5,7,9,11,-1,13,15,17,-1,19,-1,21,23,25,-1,27,29,31,-1,33,35,37,39,41,43,45,47,49,51,-1,-1,-1,-1,-1,-1,-1,-1,-1,-1,-1,-1,-1,-1,-1,-1,-1,-1,-1,-1,-1,-1],"loss_changes":[8.5529736E2,1.1623138E1,3.672882E0,2.376323E1,8.042938E0,9.445801E-1,0E0,1.7362663E1,4.3814774E0,2.3189697E0,0E0,1.0192871E-2,0E0,5.0718136E0,5.5919228E0,2.1355896E0,0E0,1.0645142E0,4.09254E0,1.3797945E-1,0E0,2.4124327E0,9.873104E-2,1.5506115E0,1.3173786E0,3.1928945E0,1.7763748E0,4.1671753E-1,1.8227577E0,3.5777836E0,1.7547073E0,0E0,0E0,0E0,0E0,0E0,0E0,0E0,0E0,0E0,0E0,0E0,0E0,0E0,0E0,0E0,0E0,0E0,0E0,0E0,0E0,0E0,0E0],"parents":[2147483647,0,0,1,1,2,2,3,3,4,4,5,5,7,7,8,8,9,9,11,11,13,13,14,14,15,15,17,17,18,18,19,19,21,21,22,22,23,23,24,24,25,25,26,26,27,27,28,28,29,29,30,30],"right_children":[2,4,6,8,10,12,-1,14,16,18,-1,20,-1,22,24,26,-1,28,30,32,-1,34,36,38,40,42,44,46,48,50,52,-1,-1,-1,-1,-1,-1,-1,-1,-1,-1,-1,-1,-1,-1,-1,-1,-1,-1,-1,-1,-1,-1],"split_conditions":[6.6999745E-1,4.788628E-1,2.6680225E-1,6.442106E-1,6.9379437E-1,5.4626817E-1,2.729359E-2,4.7251073E-1,1.8290083E0,6.036647E-1,-3.2963872E-2,7.251915E-1,-2.4047403E-3,1.1007767E0,1.4469796E0,1.0174861E0,-2.5383702E-2,8.41844E-1,1.7780393E0,1.674379E0,-3.833037E-2,4.5818672E-1,2.0496905E0,2.589463E0,1.8058573E-1,1.065607E0,1.7114038E0,1.5396564E0,6.4379424E-1,1.2643566E0,4.7251073E-1,-3.8200181E-3,-2.6200712E-2,-1.3997817E-2,-4.2096496E-2,8.965972E-3,3.386596E-2,3.0908573E-2,-1.3838775E-2,-3.8746223E-2,5.6916196E-3,3.433933E-2,4.2223944E-3,3.6215175E-2,-1.196432E-2,3.9425652E-2,2.5517596E-2,3.1864922E-2,-4.7707744E-3,-2.1328764E-2,2.8944368E-2,9.18258E-3,3.8261663E-2],"split_indices":[10,29,26,28,8,2,0,25,13,19,0,10,0,5,9,28,0,3,16,1,0,19,2,26,0,26,9,31,9,24,25,0,0,0,0,0,0,0,0,0,0,0,0,0,0,0,0,0,0,0,0,0,0],"split_type":[0,0,0,0,0,0,0,0,0,0,0,0,0,0,0,0,0,0,0,0,0,0,0,0,0,0,0,0,0,0,0,0,0,0,0,0,0,0,0,0,0,0,0,0,0,0,0,0,0,0,0,0,0],"sum_hessian":[1.7353602E3,9.461408E2,7.892195E2,3.8043698E2,5.657038E2,7.8773346E2,1.4860146E0,1.0906428E2,2.713727E2,5.623433E2,3.3604941E0,7.857552E2,1.9782321E0,5.1387222E1,5.7677055E1,2.6891254E2,2.460168E0,5.0750574E2,5.483758E1,3.3030984E0,7.824521E2,4.6509804E1,4.877417E0,5.2208637E1,5.468416E0,3.5671097E1,2.3324146E2,4.874976E2,2.0008131E1,1.2331364E1,4.2506218E1,1.4244877E0,1.8786107E0,3.713409E1,9.375715E0,1.4500592E0,3.427358E0,5.0735825E1,1.4728128E0,2.9903238E0,2.4780922E0,1.995386E1,1.5717237E1,2.3175037E2,1.491081E0,4.7483582E2,1.2661799E1,1.6067709E1,3.940423E0,6.954025E0,5.377339E0,6.922279E0,3.558394E1],"tree_param":{"num_deleted":"0","num_feature":"32","num_nodes":"53","size_leaf_vector":"1"}},{"base_weights":[5.2404553E-3,-7.68183E-1,8.159981E-1,-7.7822214E-1,6.2312E-1,8.20719E-1,-2.9108E-2,-7.819569E-1,2.407576E-1,3.5282403E-2,9.14426E-3,1.6988989E-2,4.1086417E-2,-3.9148055E-2,-5.5185994E-3,2.6769672E-2,-7.69318E-3],"categories":[],"categories_nodes":[],"categories_segments":[],"categories_sizes":[],"default_left":[0,0,0,0,0,0,0,0,0,0,0,0,0,0,0,0,0],"id":19,"left_children":[1,3,5,7,9,11,-1,13,15,-1,-1,-1,-1,-1,-1,-1,-1],"loss_changes":[1.0699138E3,1.2681763E1,5.9761353E0,3.4893188E0,1.18406296E-1,1.2402344E-1,0E0,4.96521E-1,5.395763E-1,0E0,0E0,0E0,0E0,0E0,0E0,0E0,0E0],"parents":[2147483647,0,0,1,1,2,2,3,3,4,4,5,5,7,7,8,8],"right_children":[2,4,6,8,10,12,-1,14,16,-1,-1,-1,-1,-1,-1,-1,-1],"split_conditions":[6.9268733E-1,1.3212762E0,3.577E-1,1.8813705E0,1.2084535E0,7.251915E-1,-2.9108E-2,1.3257343E0,6.56157E-3,3.5282403E-2,9.14426E-3,1.6988989E-2,4.1086417E-2,-3.9148055E-2,-5.5185994E-3,2.6769672E-2,-7.69318E-3],"split_indices":[10,1,2,11,25,10,0,30,16,0,0,0,0,0,0,0,0],"split_type":[0,0,0,0,0,0,0,0,0,0,0,0,0,0,0,0,0],"sum_hessian":[1.7042416E3,8.7222943E2,8.320121E2,8.6641833E2,5.8111053E0,8.2962384E2,2.3882282E0,8.634861E2,2.9322314E0,4.3859997E0,1.4251055E0,2.4446652E0,8.271792E2,8.620314E2,1.4547359E0,1.4745566E0,1.457675E0],"tree_param":{"num_deleted":"0","num_feature":"32","num_nodes":"17","size_leaf_vector":"1"}},{"base_weights":[2.0331934E-2,4.139035E-1,-5.127671E-1,7.836153E-1,-5.3875636E-2,-2.5971679E-2,6.957949E-3,1.3352821E0,6.1931822E-2,2.2537659E-1,-3.2045776E-1,2.0512981E0,4.5631665E-1,3.607887E-1,-4.0106302E-1,9.230677E-1,-2.8099936E-1,-3.7120286E-1,1.5631533E-1,2.3120499E0,-2.0202097E-2,1.179318E0,-6.267526E-2,9.99859E-1,-2.0619291E-1,-4.468716E-1,1.0477813E-2,1.7498946E0,1.976884E-2,-2.4614843E-2,7.883149E-3,-4.3102276E-1,6.0256686E-2,4.4155005E-2,-1.9162156E-2,1.2762845E-1,3.982646E-3,1.0094416E-1,1.2311696E-2,2.5480945E-2,-1.666693E-2,7.136663E-2,-2.047598E-2,-2.045694E-2,1.6033735E-2,-2.4866821E-2,5.5752294E-3,1.023286E-1,-1.415988E-2,3.957051E-2,-2.2567188E-2,3.4378983E-2,-1.3056054E-2,-2.5456384E-2,-1.5309814E-3,3.3840217E-2,-1.987633E-2],"categories":[],"categories_nodes":[],"categories_segments":[],"categories_sizes":[],"default_left":[0,0,0,0,0,0,0,0,0,0,0,0,0,0,0,0,0,0,0,0,0,0,0,0,0,0,0,0,0,0,0,0,0,0,0,0,0,0,0,0,0,0,0,0,0,0,0,0,0,0,0,0,0,0,0,0,0],"id":20,"left_children":[1,3,5,7,9,-1,-1,11,13,15,17,19,21,23,25,27,29,31,33,35,-1,37,39,41,43,45,-1,47,49,-1,51,53,55,-1,-1,-1,-1,-1,-1,-1,-1,-1,-1,-1,-1,-1,-1,-1,-1,-1,-1,-1,-1,-1,-1,-1,-1],"loss_changes":[7.315479E1,3.4726757E1,7.1593857E-1,4.4540985E1,6.7327466E0,0E0,0E0,3.9012657E1,7.0088844E0,1.5904655E1,1.1754599E0,2.3146606E1,1.124889E1,1.1320689E1,6.512182E-1,1.4049334E1,1.6169765E0,1.1110187E0,2.3566623E0,1.6716705E1,0E0,9.291489E0,3.002398E0,9.375392E0,1.9577973E0,5.8694816E-1,0E0,6.5111465E0,4.0009646E0,0E0,2.4007063E0,1.1428952E0,1.9614704E0,0E0,0E0,0E0,0E0,0E0,0E0,0E0,0E0,0E0,0E0,0E0,0E0,0E0,0E0,0E0,0E0,0E0,0E0,0E0,0E0,0E0,0E0,0E0,0E0],"parents":[2147483647,0,0,1,1,2,2,3,3,4,4,7,7,8,8,9,9,10,10,11,11,12,12,13,13,14,14,15,15,16,16,17,17,18,18,19,19,21,21,22,22,23,23,24,24,25,25,27,27,28,28,30,30,31,31,32,32],"right_children":[2,4,6,8,10,-1,-1,12,14,16,18,20,22,24,26,28,30,32,34,36,-1,38,40,42,44,46,-1,48,50,-1,52,54,56,-1,-1,-1,-1,-1,-1,-1,-1,-1,-1,-1,-1,-1,-1,-1,-1,-1,-1,-1,-1,-1,-1,-1,-1],"split_conditions":[1.1448457E-2,7.8042054E-1,1.0523161E0,1.237842E0,3.3463188E-2,-2.5971679E-2,6.957949E-3,3.129571E-1,4.1238993E-1,1.2948169E0,1.1175674E0,1.1449538E0,5.0053877E-1,4.8488286E-1,2.362381E0,4.7024915E-1,1.8452944E0,5.0984E0,3.201003E0,1.5050216E0,-2.0202097E-2,6.862036E-1,3.0461442E-1,2.3632948E0,9.6403503E-1,1.021749E0,1.0477813E-2,2.3542237E0,1.4337642E-1,-2.4614843E-2,5.7809055E-4,4.19266E0,1.0500438E0,4.4155005E-2,-1.9162156E-2,1.2762845E-1,3.982646E-3,1.0094416E-1,1.2311696E-2,2.5480945E-2,-1.666693E-2,7.136663E-2,-2.047598E-2,-2.045694E-2,1.6033735E-2,-2.4866821E-2,5.5752294E-3,1.023286E-1,-1.415988E-2,3.957051E-2,-2.2567188E-2,3.4378983E-2,-1.3056054E-2,-2.5456384E-2,-1.5309814E-3,3.3840217E-2,-1.987633E-2],"split_indices":[10,29,16,28,6,0,0,6,5,29,31,5,25,6,23,28,23,2,2,25,0,0,0,28,31,25,0,0,5,0,31,16,26,0,0,0,0,0,0,0,0,0,0,0,0,0,0,0,0,0,0,0,0,0,0,0,0],"split_type":[0,0,0,0,0,0,0,0,0,0,0,0,0,0,0,0,0,0,0,0,0,0,0,0,0,0,0,0,0,0,0,0,0,0,0,0,0,0,0,0,0,0,0,0,0,0,0,0,0,0,0,0,0,0,0,0,0],"sum_hessian":[3.466557E2,1.995542E2,1.4710149E2,1.11083534E2,8.847066E1,1.4581366E2,1.2878264E0,6.247578E1,4.8607758E1,4.328401E1,4.5186646E1,3.369426E1,2.878152E1,2.9674208E1,1.893355E1,1.7857222E1,2.5426792E1,4.104E1,4.146645E0,3.0512281E1,3.181978E0,1.1495273E1,1.728625E1,1.3591333E1,1.6082874E1,1.786173E1,1.0718186E0,8.833931E0,9.023291E0,1.4278741E1,1.114805E1,3.6043716E1,4.996286E0,1.4954994E0,2.6511455E0,2.7415144E1,3.0971367E0,5.4383326E0,6.05694E0,5.26693E0,1.2019319E1,1.0418574E1,3.172759E0,1.1771877E1,4.310998E0,1.6481485E1,1.380244E0,7.703215E0,1.1307155E0,3.1628854E0,5.8604054E0,2.7198222E0,8.428228E0,2.9933231E1,6.110483E0,1.9251006E0,3.071185E0],"tree_param":{"num_deleted":"0","num_feature":"32","num_nodes":"57","size_leaf_vector":"1"}},{"base_weights":[2.3129976E-3,6.2992615E-1,-7.4459296E-1,6.401223E-1,-6.0569024E-1,-3.7367452E-2,4.1370974E-3,5.279087E-1,7.219299E-1,-6.8384493E-3,-3.4322195E-2,2.0920436E-1,6.5078545E-1,7.4781954E-1,3.6816394E-1,-1.517511E-1,5.871467E-1,6.5955675E-1,-1.9352917E-2,7.730779E-1,3.7930772E-1,5.1238954E-1,-2.941999E-1,-2.239026E-2,2.864194E-2,3.662826E-2,1.5841752E-2,2.8946817E-2,3.6838003E-2,3.8744725E-2,1.146511E-2,-2.125998E-2,2.6647061E-2,2.7809232E-2,-1.0920903E-2,-3.395795E-2,1.7111601E-2],"categories":[],"categories_nodes":[],"categories_segments":[],"categories_sizes":[],"default_left":[0,0,0,0,0,0,0,0,0,0,0,0,0,0,0,0,0,0,0,0,0,0,0,0,0,0,0,0,0,0,0,0,0,0,0,0,0],"id":21,"left_children":[1,3,5,7,9,-1,-1,11,13,-1,-1,15,17,19,21,23,25,27,-1,29,31,33,35,-1,-1,-1,-1,-1,-1,-1,-1,-1,-1,-1,-1,-1,-1],"loss_changes":[7.951507E2,1.2000122E1,1.8278809E0,8.015533E0,2.1123266E-1,0E0,0E0,1.5112793E1,4.5448914E0,0E0,0E0,1.5071722E1,2.809311E0,4.26239E0,3.7673736E0,1.2477705E1,1.884901E0,1.3073883E0,0E0,2.737732E-1,4.3496003E0,1.1281881E0,2.0465891E0,0E0,0E0,0E0,0E0,0E0,0E0,0E0,0E0,0E0,0E0,0E0,0E0,0E0,0E0],"parents":[2147483647,0,0,1,1,2,2,3,3,4,4,7,7,8,8,11,11,12,12,13,13,14,14,15,15,16,16,17,17,19,19,20,20,21,21,22,22],"right_children":[2,4,6,8,10,-1,-1,12,14,-1,-1,16,18,20,22,24,26,28,-1,30,32,34,36,-1,-1,-1,-1,-1,-1,-1,-1,-1,-1,-1,-1,-1,-1],"split_conditions":[6.6999745E-1,1.1818268E0,5.4626817E-1,8.815566E-1,1.673978E-1,-3.7367452E-2,4.1370974E-3,4.7251073E-1,1.5978354E0,-6.8384493E-3,-3.4322195E-2,1.0031403E0,5.130151E-1,7.395772E-1,1.3772291E-2,7.7433586E-1,3.8242802E-1,1.4813936E0,-1.9352917E-2,2.455982E-1,1.2965807E-1,2.1278636E-1,2.2825327E0,-2.239026E-2,2.864194E-2,3.662826E-2,1.5841752E-2,2.8946817E-2,3.6838003E-2,3.8744725E-2,1.146511E-2,-2.125998E-2,2.6647061E-2,2.7809232E-2,-1.0920903E-2,-3.395795E-2,1.7111601E-2],"split_indices":[10,30,2,27,10,0,0,25,31,0,0,28,8,3,11,29,31,25,0,8,29,8,27,0,0,0,0,0,0,0,0,0,0,0,0,0,0],"split_type":[0,0,0,0,0,0,0,0,0,0,0,0,0,0,0,0,0,0,0,0,0,0,0,0,0,0,0,0,0,0,0,0,0,0,0,0,0],"sum_hessian":[1.6942557E3,9.2073413E2,7.7352167E2,9.136766E2,7.0575724E0,7.7104974E2,2.4719014E0,3.8838757E2,5.25289E2,1.4325693E0,5.6250033E0,1.0882687E2,2.795607E2,4.8843036E2,3.6858643E1,5.5970497E1,5.285638E1,2.7757922E2,1.9814675E0,4.560726E2,3.2357754E1,3.0453917E1,6.4047256E0,4.0006546E1,1.5963951E1,3.325581E1,1.960057E1,1.3994197E2,1.3763725E2,4.5413052E2,1.9421008E0,4.9049873E0,2.7452766E1,2.8957523E1,1.4963927E0,3.9489725E0,2.455753E0],"tree_param":{"num_deleted":"0","num_feature":"32","num_nodes":"37","size_leaf_vector":"1"}},{"base_weights":[-3.5004816E-3,-7.5079715E-1,7.892702E-1,-7.607535E-1,3.5666984E-2,7.948134E-1,-4.3454233E-1,-7.6266325E-1,-2.6346174E-1,3.983459E-2,-7.5790505E-3,-2.6775364E-2,-6.555812E-3,-3.8177278E-2,-7.27155E-3,-2.8100772E-2,1.2550435E-2],"categories":[],"categories_nodes":[],"categories_segments":[],"categories_sizes":[],"default_left":[0,0,0,0,0,0,0,0,0,0,0,0,0,0,0,0,0],"id":22,"left_children":[1,3,5,7,-1,9,11,13,15,-1,-1,-1,-1,-1,-1,-1,-1],"loss_changes":[9.879494E2,1.3056305E1,5.834778E0,6.092529E-1,0E0,1.5533142E0,6.137097E-2,3.5147095E-1,8.770102E-1,0E0,0E0,0E0,0E0,0E0,0E0,0E0,0E0],"parents":[2147483647,0,0,1,1,2,2,3,3,5,5,6,6,7,7,8,8],"right_children":[2,4,6,8,-1,10,12,14,16,-1,-1,-1,-1,-1,-1,-1,-1],"split_conditions":[5.401694E-1,1.4704804E0,2.1480241E-1,1.6812704E0,3.5666984E-2,1.2621816E-1,4.1242832E-1,6.3356465E-1,3.7163854E-1,3.983459E-2,-7.5790505E-3,-2.6775364E-2,-6.555812E-3,-3.8177278E-2,-7.27155E-3,-2.8100772E-2,1.2550435E-2],"split_indices":[10,30,7,11,0,26,14,21,4,0,0,0,0,0,0,0,0],"split_type":[0,0,0,0,0,0,0,0,0,0,0,0,0,0,0,0,0],"sum_hessian":[1.6656082E3,8.5742175E2,8.0818634E2,8.521077E2,5.314062E0,8.048912E2,3.2951808E0,8.4831635E2,3.7913647E0,8.034547E2,1.4364572E0,1.8985648E0,1.396616E0,8.468688E2,1.447546E0,2.3406441E0,1.4507205E0],"tree_param":{"num_deleted":"0","num_feature":"32","num_nodes":"17","size_leaf_vector":"1"}},{"base_weights":[8.147194E-3,3.8142952E-1,-4.9886277E-1,8.103507E-1,5.4269875E-3,-2.5922043E-2,-1.3846783E-1,1.5852728E0,2.6601464E-1,-3.2983115E-1,3.8216656E-1,3.5298746E-2,-3.365216E-1,1.9755979E0,-1.3350401E-2,-1.9416355E-3,1.1346514E0,-1.13354035E-1,-4.3560535E-1,7.7901053E-1,-2.2311145E-1,-2.2496063E-2,1.0413883E-2,2.1114347E0,-1.643466E-2,-2.2349412E-2,7.4848473E-1,3.8275114E-1,-3.7468365E-1,1.6433676E0,-3.050068E-2,2.6888683E-1,-3.386086E-1,-4.8348996E-1,1.04401365E-1,1.2733544E0,-1.481055E-1,1.92366E-1,-2.4378495E-2,1.2129909E-1,6.511461E-2,7.553529E-2,-1.5448063E-2,-1.7331604E-2,3.7958916E-2,-2.467834E-2,-4.723183E-3,-1.4269625E-2,9.597802E-2,3.553429E-2,-1.985575E-2,3.5243463E-2,-1.9677635E-2,-2.394599E-2,9.78493E-3,-2.5503239E-2,-2.047995E-3,-1.7265191E-2,3.378493E-2,8.247791E-2,-3.568974E-3,-1.4306425E-2,2.4919039E-2,-2.1533541E-2,4.1866656E-2],"categories":[],"categories_nodes":[],"categories_segments":[],"categories_sizes":[],"default_left":[0,0,0,0,0,0,0,0,0,0,0,0,0,0,0,0,0,0,0,0,0,0,0,0,0,0,0,0,0,0,0,0,0,0,0,0,0,0,0,0,0,0,0,0,0,0,0,0,0,0,0,0,0,0,0,0,0,0,0,0,0,0,0,0,0],"id":23,"left_children":[1,3,5,7,9,-1,11,13,15,17,19,-1,21,23,25,27,29,31,33,35,37,-1,-1,39,-1,-1,41,43,45,47,49,51,53,55,57,59,61,63,-1,-1,-1,-1,-1,-1,-1,-1,-1,-1,-1,-1,-1,-1,-1,-1,-1,-1,-1,-1,-1,-1,-1,-1,-1,-1,-1],"loss_changes":[6.664144E1,3.270118E1,9.818039E-1,3.953446E1,1.3902083E1,0E0,1.7525098E0,2.4288132E1,1.323247E1,1.2843847E0,1.262121E1,0E0,5.88844E-1,1.0478104E1,3.183521E0,6.5156093E0,7.9941196E0,1.8536353E0,1.0531912E0,1.4635668E1,2.4340065E0,0E0,0E0,4.387741E0,0E0,0E0,3.289415E0,6.403334E0,7.221017E-1,5.5272617E0,1.6558092E0,2.6306112E0,1.0925514E0,4.0008354E-1,1.2560797E0,1.0571468E1,1.2007208E0,3.9775953E0,0E0,0E0,0E0,0E0,0E0,0E0,0E0,0E0,0E0,0E0,0E0,0E0,0E0,0E0,0E0,0E0,0E0,0E0,0E0,0E0,0E0,0E0,0E0,0E0,0E0,0E0,0E0],"parents":[2147483647,0,0,1,1,2,2,3,3,4,4,6,6,7,7,8,8,9,9,10,10,12,12,13,13,14,14,15,15,16,16,17,17,18,18,19,19,20,20,23,23,26,26,27,27,28,28,29,29,30,30,31,31,32,32,33,33,34,34,35,35,36,36,37,37],"right_children":[2,4,6,8,10,-1,12,14,16,18,20,-1,22,24,26,28,30,32,34,36,38,-1,-1,40,-1,-1,42,44,46,48,50,52,54,56,58,60,62,64,-1,-1,-1,-1,-1,-1,-1,-1,-1,-1,-1,-1,-1,-1,-1,-1,-1,-1,-1,-1,-1,-1,-1,-1,-1,-1,-1],"split_conditions":[2.1237215E-1,8.815566E-1,7.6648444E-1,5.9702563E-1,5.798832E-1,-2.5922043E-2,8.36366E-1,1.6470894E0,6.1509514E-1,1.4499859E0,3.129571E-1,3.5298746E-2,1.1743771E0,4.1242832E-1,4.881105E-1,1.410891E0,1.7603321E0,4.126003E-2,4.7992754E-1,2.4555864E0,5.3550947E-1,-2.2496063E-2,1.0413883E-2,9.2199826E-1,-1.643466E-2,-2.2349412E-2,2.2925027E-3,1.2117299E-1,5.347394E-1,8.5754186E-1,1.613417E-2,1.1189218E0,2.809257E0,7.409514E-1,1.2233241E-1,7.843086E-1,2.010102E0,6.7446434E-1,-2.4378495E-2,1.2129909E-1,6.511461E-2,7.553529E-2,-1.5448063E-2,-1.7331604E-2,3.7958916E-2,-2.467834E-2,-4.723183E-3,-1.4269625E-2,9.597802E-2,3.553429E-2,-1.985575E-2,3.5243463E-2,-1.9677635E-2,-2.394599E-2,9.78493E-3,-2.5503239E-2,-2.047995E-3,-1.7265191E-2,3.378493E-2,8.247791E-2,-3.568974E-3,-1.4306425E-2,2.4919039E-2,-2.1533541E-2,4.1866656E-2],"split_indices":[1,27,23,25,31,0,23,28,19,27,6,0,9,14,31,25,25,25,19,27,0,0,0,0,0,0,23,0,31,25,0,28,7,9,28,25,31,26,0,0,0,0,0,0,0,0,0,0,0,0,0,0,0,0,0,0,0,0,0,0,0,0,0,0,0],"split_type":[0,0,0,0,0,0,0,0,0,0,0,0,0,0,0,0,0,0,0,0,0,0,0,0,0,0,0,0,0,0,0,0,0,0,0,0,0,0,0,0,0,0,0,0,0,0,0,0,0,0,0,0,0,0,0,0,0,0,0,0,0,0,0,0,0],"sum_hessian":[3.5011438E2,2.0179327E2,1.4832112E2,9.372371E1,1.08069565E2,1.4026294E2,8.058167E0,3.7882095E1,5.5841618E1,5.7248764E1,5.0820797E1,1.0436767E0,7.0144906E0,3.0258312E1,7.623781E0,4.3439274E1,1.2402343E1,1.9471048E1,3.7777718E1,3.0522211E1,2.0298588E1,5.9501276E0,1.0643631E0,2.865293E1,1.6053829E0,5.121748E0,2.5020332E0,2.1363731E1,2.2075542E1,8.347371E0,4.0549717E0,7.1478896E0,1.2323158E1,3.4796803E1,2.9809158E0,1.9663864E1,1.0858348E1,8.001085E0,1.2297502E1,1.9193436E1,9.459495E0,1.2048935E0,1.2971398E0,7.2993383E0,1.4064393E1,1.4965208E1,7.110334E0,1.0414208E0,7.30595E0,1.031358E0,3.0236135E0,4.2721424E0,2.8757472E0,9.8422165E0,2.4809422E0,3.2681595E1,2.115207E0,1.8893024E0,1.0916135E0,1.5188139E1,4.4757247E0,9.407322E0,1.4510266E0,4.2387357E0,3.7623498E0],"tree_param":{"num_deleted":"0","num_feature":"32","num_nodes":"65","size_leaf_vector":"1"}},{"base_weights":[5.3659775E-3,6.01924E-1,-7.268947E-1,6.342863E-1,2.941166E-1,-7.289709E-1,1.02040665E-2,6.433097E-1,-3.7370473E-1,-1.6123879E-1,4.4226322E-1,-3.1385326E-1,-3.6504805E-2,5.364498E-1,7.134084E-1,-3.2994572E-2,2.656573E-2,-4.5004734E-1,2.953418E-1,5.215412E-1,-2.2636895E-1,-2.5691723E-3,-2.2339398E-2,2.7893844E-1,6.563956E-1,7.162295E-1,-7.6395175E-3,-7.650477E-1,3.0700383E-1,-4.060378E-2,3.4034636E-2,3.6971766E-1,7.411624E-1,-3.3783082E-2,4.265667E-2,-4.5778556E-4,2.8703332E-2,3.6446404E-2,2.3743082E-2,3.6397006E-2,2.256604E-2,-4.2545304E-2,-6.30031E-3,3.0011622E-2,-1.1121889E-2,-1.712322E-2,2.6095426E-2,2.2389848E-2,-3.436794E-2,4.3426612E-3,3.8980108E-2,-2.2403684E-2,2.0081248E-2],"categories":[],"categories_nodes":[],"categories_segments":[],"categories_sizes":[],"default_left":[0,0,0,0,0,0,0,0,0,0,0,0,0,0,0,0,0,0,0,0,0,0,0,0,0,0,0,0,0,0,0,0,0,0,0,0,0,0,0,0,0,0,0,0,0,0,0,0,0,0,0,0,0],"id":24,"left_children":[1,3,5,7,9,11,-1,13,15,17,19,21,-1,23,25,-1,-1,27,29,31,33,-1,-1,35,37,39,-1,41,43,45,-1,47,49,-1,51,-1,-1,-1,-1,-1,-1,-1,-1,-1,-1,-1,-1,-1,-1,-1,-1,-1,-1],"loss_changes":[7.257464E2,8.933197E0,1.5904541E0,7.767395E0,6.0726643E0,1.1856079E-1,0E0,5.7640076E0,2.4161584E0,3.1092541E0,3.6903257E0,1.084559E-1,0E0,9.981537E0,1.3128815E0,0E0,0E0,3.6264086E0,1.2379589E0,1.744957E0,9.765445E-1,0E0,0E0,9.0445595E0,2.600296E0,1.19487E0,0E0,4.5953035E-1,8.930572E-1,1.1870942E0,0E0,3.4273682E0,5.297346E-1,0E0,1.2095659E0,0E0,0E0,0E0,0E0,0E0,0E0,0E0,0E0,0E0,0E0,0E0,0E0,0E0,0E0,0E0,0E0,0E0,0E0],"parents":[2147483647,0,0,1,1,2,2,3,3,4,4,5,5,7,7,8,8,9,9,10,10,11,11,13,13,14,14,17,17,18,18,19,19,20,20,23,23,24,24,25,25,27,27,28,28,29,29,31,31,32,32,34,34],"right_children":[2,4,6,8,10,12,-1,14,16,18,20,22,-1,24,26,-1,-1,28,30,32,34,-1,-1,36,38,40,-1,42,44,46,-1,48,50,-1,52,-1,-1,-1,-1,-1,-1,-1,-1,-1,-1,-1,-1,-1,-1,-1,-1,-1,-1],"split_conditions":[6.8954736E-1,6.1509514E-1,1.2848526E-1,6.877514E-1,4.7251073E-1,7.251915E-1,1.02040665E-2,4.853389E-1,2.4803673E-1,5.598332E-1,1.2261454E0,8.280892E-4,-3.6504805E-2,9.6860707E-1,5.7208955E-1,-3.2994572E-2,2.656573E-2,1.8255523E0,1.3772291E-2,1.2643566E0,5.6782503E-2,-2.5691723E-3,-2.2339398E-2,4.7251073E-1,8.513823E-3,7.8694403E-1,-7.6395175E-3,1.4357647E-1,9.415027E-1,1.3669841E-3,3.4034636E-2,1.1754677E-1,6.592425E-1,-3.3783082E-2,1.6816676E0,-4.5778556E-4,2.8703332E-2,3.6446404E-2,2.3743082E-2,3.6397006E-2,2.256604E-2,-4.2545304E-2,-6.30031E-3,3.0011622E-2,-1.1121889E-2,-1.712322E-2,2.6095426E-2,2.2389848E-2,-3.436794E-2,4.3426612E-3,3.8980108E-2,-2.2403684E-2,2.0081248E-2],"split_indices":[10,19,26,22,25,10,0,29,7,28,19,19,0,28,8,0,0,0,11,24,24,0,0,25,19,3,0,14,26,15,0,14,19,0,7,0,0,0,0,0,0,0,0,0,0,0,0,0,0,0,0,0,0],"split_type":[0,0,0,0,0,0,0,0,0,0,0,0,0,0,0,0,0,0,0,0,0,0,0,0,0,0,0,0,0,0,0,0,0,0,0,0,0,0,0,0,0,0,0,0,0,0,0,0,0,0,0,0,0],"sum_hessian":[1.659369E3,9.1451227E2,7.4485675E2,8.2654974E2,8.796251E1,7.434158E2,1.4409692E0,8.1957477E2,6.9749527E0,2.1571192E1,6.639132E1,2.7663598E0,7.406494E2,3.2808633E2,4.9148846E2,5.505005E0,1.4699478E0,1.3221981E1,8.349211E0,5.9550552E1,6.840765E0,1.396199E0,1.3701609E0,1.0531386E2,2.2277246E2,4.9006555E2,1.4229305E0,9.329514E0,3.8924675E0,4.938501E0,3.4107106E0,3.6796604E1,2.275395E1,1.9959189E0,4.8448462E0,5.3782337E1,5.1531525E1,1.5701953E2,6.575293E1,4.6764478E2,2.2420757E1,7.9322433E0,1.3972707E0,2.4190052E0,1.4734623E0,3.4684281E0,1.4700725E0,3.4802364E1,1.9942394E0,1.4434494E0,2.1310501E1,1.941913E0,2.9029331E0],"tree_param":{"num_deleted":"0","num_feature":"32","num_nodes":"53","size_leaf_vector":"1"}},{"base_weights":[-1.46176545E-2,-7.3408705E-1,7.667721E-1,-7.428739E-1,3.4414202E-2,7.731617E-1,-3.006632E-2,-7.4482167E-1,1.1548719E-2,2.4412763E-1,3.874042E-2,-3.728388E-2,-7.0922966E-3,2.6939804E-2,-7.8615295E-3],"categories":[],"categories_nodes":[],"categories_segments":[],"categories_sizes":[],"default_left":[0,0,0,0,0,0,0,0,0,0,0,0,0,0,0],"id":25,"left_children":[1,3,5,7,-1,9,-1,11,-1,13,-1,-1,-1,-1,-1],"loss_changes":[9.2565875E2,1.1225067E1,7.364807E0,1.7889404E0,0E0,4.95636E-1,0E0,3.3340454E-1,0E0,5.4585695E-1,0E0,0E0,0E0,0E0,0E0],"parents":[2147483647,0,0,1,1,2,2,3,3,5,5,7,7,9,9],"right_children":[2,4,6,8,-1,10,-1,12,-1,14,-1,-1,-1,-1,-1],"split_conditions":[5.2738875E-1,1.4704804E0,5.4626817E-1,1.4732395E0,3.4414202E-2,6.14917E-1,-3.006632E-2,6.145267E-1,1.1548719E-2,5.835825E-1,3.874042E-2,-3.728388E-2,-7.0922966E-3,2.6939804E-2,-7.8615295E-3],"split_indices":[10,30,2,20,0,10,0,21,0,10,0,0,0,0,0],"split_type":[0,0,0,0,0,0,0,0,0,0,0,0,0,0,0],"sum_hessian":[1.6445336E3,8.562222E2,7.8831134E2,8.5144006E2,4.7821665E0,7.850795E2,3.2318082E0,8.499753E2,1.4648111E0,2.8991382E0,7.821804E2,8.485342E2,1.4410932E0,1.4743042E0,1.424834E0],"tree_param":{"num_deleted":"0","num_feature":"32","num_nodes":"15","size_leaf_vector":"1"}},{"base_weights":[2.48225E-2,3.9675754E-1,-4.9051592E-1,1.3554241E-1,9.947922E-1,-5.040352E-1,3.1739634E-2,4.42202E-1,-2.7288148E-1,1.2803553E0,-2.4181227E-1,-1.16870455E-1,-2.5877092E-2,9.6117115E-1,-1.163094E-1,-3.71696E-1,5.6185144E-1,1.785965E0,4.093428E-1,-2.3581315E-2,3.850356E-1,-2.089637E-2,2.9468352E-2,1.1822599E0,-2.228678E-2,-2.0381732E-1,6.461727E-2,-4.316783E-1,4.3894738E-2,9.767327E-1,-1.7434489E-2,1.9034344E0,2.2010458E-1,1.1850885E0,-4.5472343E-2,5.8061846E-2,-1.6850738E-2,7.698033E-2,5.25975E-3,-1.5381082E-2,2.3622831E-2,-1.3825513E-2,-2.5391294E-2,-1.3405471E-2,3.1207506E-2,8.0153815E-2,-3.459762E-4,1.03100315E-1,1.7594496E-2,3.6092196E-2,-1.5739929E-2,9.703233E-2,-5.4220934E-3,-1.34417135E-2,2.0072771E-2],"categories":[],"categories_nodes":[],"categories_segments":[],"categories_sizes":[],"default_left":[0,0,0,0,0,0,0,0,0,0,0,0,0,0,0,0,0,0,0,0,0,0,0,0,0,0,0,0,0,0,0,0,0,0,0,0,0,0,0,0,0,0,0,0,0,0,0,0,0,0,0,0,0,0,0],"id":26,"left_children":[1,3,5,7,9,11,-1,13,15,17,19,21,-1,23,25,27,29,31,33,-1,35,-1,-1,37,-1,39,-1,41,43,45,-1,47,49,51,53,-1,-1,-1,-1,-1,-1,-1,-1,-1,-1,-1,-1,-1,-1,-1,-1,-1,-1,-1,-1],"loss_changes":[6.638995E1,3.1286367E1,2.5291862E0,1.7799335E1,2.1846748E1,6.927986E-1,0E0,2.3589775E1,5.2527113E0,2.1159317E1,1.9510558E0,1.5534072E0,0E0,1.3620514E1,5.1825457E0,1.3969522E0,2.9361253E0,5.311325E0,6.9528484E0,0E0,2.5466723E0,0E0,0E0,1.3944729E1,0E0,2.8435285E0,0E0,4.3145084E-1,1.5939271E0,3.0812502E0,0E0,6.3719406E0,1.1141635E0,7.309827E0,1.4345922E0,0E0,0E0,0E0,0E0,0E0,0E0,0E0,0E0,0E0,0E0,0E0,0E0,0E0,0E0,0E0,0E0,0E0,0E0,0E0,0E0],"parents":[2147483647,0,0,1,1,2,2,3,3,4,4,5,5,7,7,8,8,9,9,10,10,11,11,13,13,14,14,15,15,16,16,17,17,18,18,20,20,23,23,25,25,27,27,28,28,29,29,31,31,32,32,33,33,34,34],"right_children":[2,4,6,8,10,12,-1,14,16,18,20,22,-1,24,26,28,30,32,34,-1,36,-1,-1,38,-1,40,-1,42,44,46,-1,48,50,52,54,-1,-1,-1,-1,-1,-1,-1,-1,-1,-1,-1,-1,-1,-1,-1,-1,-1,-1,-1,-1],"split_conditions":[2.2781092E-1,5.944461E-1,1.4469796E0,1.4038845E0,1.385437E0,1.3669841E-3,3.1739634E-2,8.0265814E-1,7.395772E-1,6.898578E-1,4.8815954E-1,3.4209564E-1,-2.5877092E-2,8.1859875E-1,1.1092018E0,3.272526E-1,7.806644E-4,2.1965032E0,2.309721E-3,-2.3581315E-2,3.084698E0,-2.089637E-2,2.9468352E-2,5.231006E-1,-2.228678E-2,2.8292928E0,6.461727E-2,9.1116124E-1,8.533109E-2,8.8901067E-1,-1.7434489E-2,7.593447E-1,3.432668E-1,1.7603321E0,3.8325794E0,5.8061846E-2,-1.6850738E-2,7.698033E-2,5.25975E-3,-1.5381082E-2,2.3622831E-2,-1.3825513E-2,-2.5391294E-2,-1.3405471E-2,3.1207506E-2,8.0153815E-2,-3.459762E-4,1.03100315E-1,1.7594496E-2,3.6092196E-2,-1.5739929E-2,9.703233E-2,-5.4220934E-3,-1.34417135E-2,2.0072771E-2],"split_indices":[1,9,9,27,29,15,0,25,3,6,19,13,0,5,19,19,25,0,27,0,23,0,0,6,0,7,0,0,11,29,0,11,25,25,16,0,0,0,0,0,0,0,0,0,0,0,0,0,0,0,0,0,0,0,0],"split_type":[0,0,0,0,0,0,0,0,0,0,0,0,0,0,0,0,0,0,0,0,0,0,0,0,0,0,0,0,0,0,0,0,0,0,0,0,0,0,0,0,0,0,0,0,0,0,0,0,0,0,0,0,0,0,0],"sum_hessian":[3.443566E2,2.0013983E2,1.4421675E2,1.4015031E2,5.998951E1,1.4305026E2,1.166486E0,8.00004E1,6.0149925E1,4.870656E1,1.1282952E1,5.147629E0,1.3790263E2,4.109445E1,3.890594E1,5.4279152E1,5.870776E0,3.0152843E1,1.8553717E1,8.437304E0,2.845649E0,3.895344E0,1.2522845E0,3.5651638E1,5.442814E0,3.7435688E1,1.4702554E0,4.739929E1,6.879862E0,3.9831772E0,1.8875991E0,2.784812E1,2.3047233E0,6.2640033E0,1.2289713E1,1.078267E0,1.767382E0,2.6447493E1,9.204146E0,3.292674E1,4.5089483E0,1.7128109E1,3.027118E1,4.8239584E0,2.0559034E0,2.048848E0,1.9343293E0,2.4967384E1,2.8807344E0,1.0088946E0,1.2958287E0,3.6384778E0,2.6255252E0,8.460085E0,3.8296282E0],"tree_param":{"num_deleted":"0","num_feature":"32","num_nodes":"55","size_leaf_vector":"1"}},{"base_weights":[-2.7296843E-4,5.824463E-1,-7.089992E-1,5.918704E-1,-4.9339613E-1,-7.1206623E-1,2.509383E-2,6.324904E-1,3.7830487E-1,1.02827465E-2,-3.329084E-2,-7.1306366E-1,-5.3626797E-3,5.658057E-1,7.1232766E-1,1.3355796E-1,5.8896756E-1,-3.421585E-1,-3.5709746E-2,4.0268788E-1,6.7162985E-1,7.3900235E-1,3.9093748E-1,-2.462515E-1,4.338112E-1,6.305652E-1,2.0760475E-1,-1.6935569E-3,-2.4095912E-2,7.902748E-3,3.0360797E-2,3.4632407E-2,1.1774757E-2,3.764773E-2,1.3590366E-2,2.6674494E-2,-2.695166E-3,-2.3315482E-2,2.0505205E-2,2.57133E-2,-3.496005E-2,3.62432E-2,1.8874258E-2,-1.8767646E-2,2.1055602E-2],"categories":[],"categories_nodes":[],"categories_segments":[],"categories_sizes":[],"default_left":[0,0,0,0,0,0,0,0,0,0,0,0,0,0,0,0,0,0,0,0,0,0,0,0,0,0,0,0,0,0,0,0,0,0,0,0,0,0,0,0,0,0,0,0,0],"id":27,"left_children":[1,3,5,7,9,11,-1,13,15,-1,-1,17,-1,19,21,23,25,27,-1,29,31,33,35,37,39,41,43,-1,-1,-1,-1,-1,-1,-1,-1,-1,-1,-1,-1,-1,-1,-1,-1,-1,-1],"loss_changes":[6.752007E2,9.388824E0,3.0970154E0,7.4804688E0,1.1417408E0,3.6767578E-1,0E0,3.5696106E0,7.381687E0,0E0,0E0,6.399536E-2,0E0,6.8318176E0,2.5894012E0,7.8872743E0,1.0980473E0,1.6266236E-1,0E0,8.12936E0,2.1107178E0,1.8088074E0,1.7950282E0,4.6341453E0,3.8659801E0,1.3816433E0,1.2919271E0,0E0,0E0,0E0,0E0,0E0,0E0,0E0,0E0,0E0,0E0,0E0,0E0,0E0,0E0,0E0,0E0,0E0,0E0],"parents":[2147483647,0,0,1,1,2,2,3,3,4,4,5,5,7,7,8,8,11,11,13,13,14,14,15,15,16,16,17,17,19,19,20,20,21,21,22,22,23,23,24,24,25,25,26,26],"right_children":[2,4,6,8,10,12,-1,14,16,-1,-1,18,-1,20,22,24,26,28,-1,30,32,34,36,38,40,42,44,-1,-1,-1,-1,-1,-1,-1,-1,-1,-1,-1,-1,-1,-1,-1,-1,-1,-1],"split_conditions":[6.6999745E-1,1.3257343E0,2.4555864E0,8.6269367E-1,1.4973795E-2,1.2621816E-1,2.509383E-2,1.4038845E0,2.057544E0,1.02827465E-2,-3.329084E-2,7.251915E-1,-5.3626797E-3,6.359748E-1,7.395772E-1,8.705877E-1,1.5396564E0,3.371898E-1,-3.5709746E-2,1.0299611E0,8.4512866E-1,2.010102E0,2.558347E-1,2.9225188E-1,8.8962954E-1,4.3016946E-1,3.5073142E0,-1.6935569E-3,-2.4095912E-2,7.902748E-3,3.0360797E-2,3.4632407E-2,1.1774757E-2,3.764773E-2,1.3590366E-2,2.6674494E-2,-2.695166E-3,-2.3315482E-2,2.0505205E-2,2.57133E-2,-3.496005E-2,3.62432E-2,1.8874258E-2,-1.8767646E-2,2.1055602E-2],"split_indices":[10,30,27,9,12,26,0,27,23,0,0,10,0,25,3,0,31,3,0,28,19,31,19,15,3,19,7,0,0,0,0,0,0,0,0,0,0,0,0,0,0,0,0,0,0],"split_type":[0,0,0,0,0,0,0,0,0,0,0,0,0,0,0,0,0,0,0,0,0,0,0,0,0,0,0,0,0,0,0,0,0,0,0,0,0,0,0,0,0,0,0,0,0],"sum_hessian":[1.6329147E3,8.962173E2,7.366974E2,8.8888074E2,7.3365583E0,7.35247E2,1.450368E0,7.451854E2,1.4369528E2,1.4134021E0,5.9231563E0,7.338578E2,1.3892257E0,4.1044482E2,3.347406E2,6.72262E1,7.6469086E1,3.15413E0,7.307036E2,1.6339397E2,2.4705087E2,3.078872E2,2.6853395E1,2.976032E1,3.7465878E1,6.835925E1,8.109831E0,1.3713987E0,1.7827313E0,7.520963E1,8.818433E1,2.3513124E2,1.1919619E1,2.9836523E2,9.52197E0,2.0185518E1,6.667876E0,2.2504667E1,7.2556543E0,3.549173E1,1.974148E0,4.8444458E1,1.9914797E1,1.9707866E0,6.1390443E0],"tree_param":{"num_deleted":"0","num_feature":"32","num_nodes":"45","size_leaf_vector":"1"}},{"base_weights":[1.7224251E-4,-7.1565753E-1,7.521765E-1,-7.2558886E-1,5.909626E-1,7.549784E-1,-2.3159785E-2,-7.292529E-1,2.3214439E-1,7.6831514E-3,3.386743E-2,1.4439376E-2,3.780215E-2,-3.6506962E-2,-5.940105E-3,2.5475843E-2,-7.5176875E-3],"categories":[],"categories_nodes":[],"categories_segments":[],"categories_sizes":[],"default_left":[0,0,0,0,0,0,0,0,0,0,0,0,0,0,0,0,0],"id":28,"left_children":[1,3,5,7,9,11,-1,13,15,-1,-1,-1,-1,-1,-1,-1,-1],"loss_changes":[8.5370483E2,1.0972107E1,2.983368E0,3.0005493E0,1.4826894E-1,1.6479492E-1,0E0,3.482666E-1,4.8331362E-1,0E0,0E0,0E0,0E0,0E0,0E0,0E0,0E0],"parents":[2147483647,0,0,1,1,2,2,3,3,4,4,5,5,7,7,8,8],"right_children":[2,4,6,8,10,12,-1,14,16,-1,-1,-1,-1,-1,-1,-1,-1],"split_conditions":[6.9268733E-1,1.3257343E0,5.4626817E-1,1.4306966E0,2.1257065E-3,7.251915E-1,-2.3159785E-2,1.571595E0,2.309721E-3,7.6831514E-3,3.386743E-2,1.4439376E-2,3.780215E-2,-3.6506962E-2,-5.940105E-3,2.5475843E-2,-7.5176875E-3],"split_indices":[10,30,2,20,25,10,0,12,27,0,0,0,0,0,0,0,0],"split_type":[0,0,0,0,0,0,0,0,0,0,0,0,0,0,0,0,0],"sum_hessian":[1.5839067E3,8.114957E2,7.724111E2,8.0581555E2,5.6801314E0,7.7101245E2,1.3986448E0,8.029821E2,2.833433E0,1.3953657E0,4.2847657E0,2.3768775E0,7.6863556E2,8.0162213E2,1.3600173E0,1.4499269E0,1.3835061E0],"tree_param":{"num_deleted":"0","num_feature":"32","num_nodes":"17","size_leaf_vector":"1"}},{"base_weights":[2.8402833E-2,3.7425223E-1,-5.0960535E-1,1.19672075E-1,9.214741E-1,-2.5838701E-2,3.9282567E-3,3.9166436E-1,-3.3349127E-1,1.210287E0,-3.3632702E-1,7.826434E-1,-2.7696437E-1,3.1388077E-1,-4.1238102E-1,1.9870708E0,6.646637E-1,-2.39986E-2,1.4875668E-2,1.2360327E0,-3.893305E-2,-3.583487E-1,5.4230537E-2,-2.0861512E-2,7.8004986E-2,-4.474345E-1,3.4535494E-2,2.1836889E0,4.099417E-1,3.0627698E-1,1.5974191E0,8.038522E-2,1.1313507E-2,-1.6677741E-2,1.883769E-2,-2.2009602E-2,1.370727E-2,-2.3342276E-2,-5.873988E-4,-1.870492E-2,3.5685614E-2,1.1503325E-1,2.2963049E-2,-1.715503E-2,5.807645E-2,3.498844E-2,-1.1534782E-2,1.1073978E-1,-1.786312E-2],"categories":[],"categories_nodes":[],"categories_segments":[],"categories_sizes":[],"default_left":[0,0,0,0,0,0,0,0,0,0,0,0,0,0,0,0,0,0,0,0,0,0,0,0,0,0,0,0,0,0,0,0,0,0,0,0,0,0,0,0,0,0,0,0,0,0,0,0,0],"id":29,"left_children":[1,3,5,7,9,-1,-1,11,13,15,17,19,21,23,25,27,29,-1,-1,31,33,35,-1,-1,-1,37,39,41,43,45,47,-1,-1,-1,-1,-1,-1,-1,-1,-1,-1,-1,-1,-1,-1,-1,-1,-1,-1],"loss_changes":[6.420232E1,2.9142797E1,6.099701E-1,1.7936356E1,2.457257E1,0E0,0E0,2.3936914E1,2.924273E0,2.170073E1,1.3450727E0,2.1472904E1,4.180481E0,6.584369E0,7.864113E-1,5.898529E0,1.0678877E1,0E0,0E0,1.3557625E1,2.7493591E0,1.8310289E0,0E0,0E0,0E0,3.810444E-1,1.5179958E0,2.8262405E0,2.4698136E0,5.522523E0,1.1695892E1,0E0,0E0,0E0,0E0,0E0,0E0,0E0,0E0,0E0,0E0,0E0,0E0,0E0,0E0,0E0,0E0,0E0,0E0],"parents":[2147483647,0,0,1,1,2,2,3,3,4,4,7,7,8,8,9,9,10,10,11,11,12,12,13,13,14,14,15,15,16,16,19,19,20,20,21,21,25,25,26,26,27,27,28,28,29,29,30,30],"right_children":[2,4,6,8,10,-1,-1,12,14,16,18,20,22,24,26,28,30,-1,-1,32,34,36,-1,-1,-1,38,40,42,44,46,48,-1,-1,-1,-1,-1,-1,-1,-1,-1,-1,-1,-1,-1,-1,-1,-1,-1,-1],"split_conditions":[3.8496786E-1,5.944461E-1,3.2998116E0,3.459496E-1,1.3249586E0,-2.5838701E-2,3.9282567E-3,7.60099E-1,3.7150344E-1,1.6605985E-1,1.922469E0,9.3490183E-1,2.010102E0,4.067113E-1,1.2621785E0,4.3567228E-1,1.558513E0,-2.39986E-2,1.4875668E-2,1.4927287E0,3.174061E-1,1.8290083E0,5.4230537E-2,-2.0861512E-2,7.8004986E-2,4.9227113E-1,1.3809961E0,3.7556961E-3,2.1871391E-1,9.618037E-1,7.616487E-1,8.038522E-2,1.1313507E-2,-1.6677741E-2,1.883769E-2,-2.2009602E-2,1.370727E-2,-2.3342276E-2,-5.873988E-4,-1.870492E-2,3.5685614E-2,1.1503325E-1,2.2963049E-2,-1.715503E-2,5.807645E-2,3.498844E-2,-1.1534782E-2,1.1073978E-1,-1.786312E-2],"split_indices":[12,9,16,6,29,0,0,5,2,6,24,29,31,31,31,5,9,0,0,28,19,13,0,0,0,20,26,17,19,27,29,0,0,0,0,0,0,0,0,0,0,0,0,0,0,0,0,0,0],"split_type":[0,0,0,0,0,0,0,0,0,0,0,0,0,0,0,0,0,0,0,0,0,0,0,0,0,0,0,0,0,0,0,0,0,0,0,0,0,0,0,0,0,0,0,0,0,0,0,0,0],"sum_hessian":[3.430193E2,2.089827E2,1.3403659E2,1.4346034E2,6.552235E1,1.3254254E2,1.4940443E0,8.973587E1,5.372448E1,5.33175E1,1.2204845E1,5.651711E1,3.321876E1,5.5122266E0,4.8212254E1,2.090871E1,3.240879E1,1.0147834E1,2.0570114E0,3.609404E1,2.0423065E1,3.2040443E1,1.1783149E0,3.893346E0,1.6188804E0,4.470472E1,3.5075355E0,1.8249035E1,2.6596758E0,2.4372614E1,8.036176E0,2.5950182E1,1.014386E1,1.2067617E1,8.355449E0,2.8638699E1,3.4017458E0,4.2729492E1,1.9752284E0,2.4703887E0,1.0371468E0,1.6776825E1,1.4722108E0,1.6000383E0,1.0596374E0,1.3890514E1,1.04821E1,6.006105E0,2.030071E0],"tree_param":{"num_deleted":"0","num_feature":"32","num_nodes":"49","size_leaf_vector":"1"}},{"base_weights":[2.410015E-3,5.585163E-1,-6.942124E-1,5.934359E-1,2.2830868E-1,-1.9454613E-1,-3.498153E-2,6.013767E-1,-3.4072483E-1,-4.4372636E-1,3.503927E-1,-3.0577824E-2,3.277003E-2,6.4040524E-1,4.2209595E-1,-3.1541582E-2,2.5109744E-2,-6.330942E-1,2.0102453E-1,1.9104968E-1,6.696831E-1,6.452772E-1,-7.368655E-2,1.743329E-1,6.517848E-1,-7.6299316E-1,6.2016384E-3,-8.53286E-3,2.4459817E-2,-2.9768112E-1,3.6469042E-1,3.7120413E-2,-1.2930854E-2,3.2416333E-2,-1.3639278E-2,-3.714704E-2,2.744599E-2,-8.117821E-3,2.098956E-2,3.3104505E-2,8.0444515E-3,-4.264298E-2,-7.808999E-3,-2.6287785E-2,2.8344825E-2,-9.256853E-3,2.410295E-2],"categories":[],"categories_nodes":[],"categories_segments":[],"categories_sizes":[],"default_left":[0,0,0,0,0,0,0,0,0,0,0,0,0,0,0,0,0,0,0,0,0,0,0,0,0,0,0,0,0,0,0,0,0,0,0,0,0,0,0,0,0,0,0,0,0,0,0],"id":30,"left_children":[1,3,5,7,9,11,-1,13,15,17,19,-1,-1,21,23,-1,-1,25,27,29,31,33,35,37,39,41,-1,-1,-1,43,45,-1,-1,-1,-1,-1,-1,-1,-1,-1,-1,-1,-1,-1,-1,-1,-1],"loss_changes":[6.1441815E2,1.0034119E1,1.769989E0,6.1169434E0,7.209108E0,3.5687337E0,0E0,5.2617493E0,2.1156118E0,1.7948787E0,3.602065E0,0E0,0E0,2.2997437E0,8.097073E0,0E0,0E0,1.1566687E0,4.969018E-1,4.3777475E0,1.8128128E0,1.9771118E0,2.6096532E0,5.9171324E0,2.7038574E-1,3.7705517E-1,0E0,0E0,0E0,3.007104E0,2.5136046E0,0E0,0E0,0E0,0E0,0E0,0E0,0E0,0E0,0E0,0E0,0E0,0E0,0E0,0E0,0E0,0E0],"parents":[2147483647,0,0,1,1,2,2,3,3,4,4,5,5,7,7,8,8,9,9,10,10,13,13,14,14,17,17,18,18,19,19,20,20,21,21,22,22,23,23,24,24,25,25,29,29,30,30],"right_children":[2,4,6,8,10,12,-1,14,16,18,20,-1,-1,22,24,-1,-1,26,28,30,32,34,36,38,40,42,-1,-1,-1,44,46,-1,-1,-1,-1,-1,-1,-1,-1,-1,-1,-1,-1,-1,-1,-1,-1],"split_conditions":[6.6999745E-1,6.1509514E-1,8.396865E-1,1.3212762E0,2.3094332E-1,2.2925027E-3,-3.498153E-2,7.5934696E-1,8.036345E-3,2.9188469E-2,3.5489413E-1,-3.0577824E-2,3.277003E-2,1.3057569E0,5.9702563E-1,-3.1541582E-2,2.5109744E-2,1.6311942E0,1.5295185E-3,4.2954636E-1,1.7114038E0,6.9466096E-1,3.183008E-1,1.7808843E0,2.3730378E0,5.5284426E-4,6.2016384E-3,-8.53286E-3,2.4459817E-2,2.6617473E-1,6.711687E-1,3.7120413E-2,-1.2930854E-2,3.2416333E-2,-1.3639278E-2,-3.714704E-2,2.744599E-2,-8.117821E-3,2.098956E-2,3.3104505E-2,8.0444515E-3,-4.264298E-2,-7.808999E-3,-2.6287785E-2,2.8344825E-2,-9.256853E-3,2.410295E-2],"split_indices":[10,19,10,1,25,23,0,9,2,15,6,0,0,3,25,0,0,0,0,13,9,4,5,23,24,14,0,0,0,11,19,0,0,0,0,0,0,0,0,0,0,0,0,0,0,0,0],"split_type":[0,0,0,0,0,0,0,0,0,0,0,0,0,0,0,0,0,0,0,0,0,0,0,0,0,0,0,0,0,0,0,0,0,0,0,0,0,0,0,0,0,0,0,0,0,0,0],"sum_hessian":[1.5840198E3,8.809583E2,7.030614E2,7.9598535E2,8.497296E1,7.937902E0,6.9512354E2,7.8962933E2,6.3559947E0,1.2658301E1,7.231466E1,5.513355E0,2.424547E0,6.4635016E2,1.432792E2,4.9157553E0,1.4402394E0,9.798494E0,2.859807E0,4.9306454E1,2.3008204E1,6.420659E2,4.2842183E0,6.977385E1,7.3505356E1,8.356957E0,1.4415369E0,1.4270291E0,1.4327776E0,1.2738424E1,3.656803E1,2.1522343E1,1.4858599E0,6.4023315E2,1.8327482E0,1.9716113E0,2.3126068E0,2.9562386E1,4.0211464E1,7.1652435E1,1.8529229E0,6.9258027E0,1.4311548E0,1.0389563E1,2.3488617E0,6.331227E0,3.0236805E1],"tree_param":{"num_deleted":"0","num_feature":"32","num_nodes":"47","size_leaf_vector":"1"}},{"base_weights":[-4.0448313E-3,-7.0475054E-1,7.278756E-1,-7.126456E-1,5.294755E-1,7.3476446E-1,-4.686206E-1,-7.1433824E-1,-4.5607365E-3,6.889728E-3,3.1207455E-2,7.3652834E-1,-6.8476037E-3,-5.613575E-3,-2.8220773E-2,-3.5766024E-2,-4.660261E-3,3.8249075E-1,3.691933E-2,3.0900707E-2,-1.150944E-2],"categories":[],"categories_nodes":[],"categories_segments":[],"categories_sizes":[],"default_left":[0,0,0,0,0,0,0,0,0,0,0,0,0,0,0,0,0,0,0,0,0],"id":31,"left_children":[1,3,5,7,9,11,13,15,-1,-1,-1,17,-1,-1,-1,-1,-1,19,-1,-1,-1],"loss_changes":[8.079613E2,8.220123E0,6.6954956E0,7.7648926E-1,1.2497389E-1,1.2794495E0,1.080513E-1,4.2010498E-1,0E0,0E0,0E0,2.2097778E-1,0E0,0E0,0E0,0E0,0E0,1.018122E0,0E0,0E0,0E0],"parents":[2147483647,0,0,1,1,2,2,3,3,4,4,5,5,6,6,7,7,11,11,17,17],"right_children":[2,4,6,8,10,12,14,16,-1,-1,-1,18,-1,-1,-1,-1,-1,20,-1,-1,-1],"split_conditions":[5.401694E-1,1.460857E0,2.1480241E-1,6.3356465E-1,2.4783768E-1,1.2848526E-1,6.56157E-3,8.7271434E-1,-4.5607365E-3,6.889728E-3,3.1207455E-2,2.169815E-1,-6.8476037E-3,-5.613575E-3,-2.8220773E-2,-3.5766024E-2,-4.660261E-3,1.3676251E0,3.691933E-2,3.0900707E-2,-1.150944E-2],"split_indices":[10,1,7,21,4,26,16,4,0,0,0,22,0,0,0,0,0,27,0,0,0],"split_type":[0,0,0,0,0,0,0,0,0,0,0,0,0,0,0,0,0,0,0,0,0],"sum_hessian":[1.5734005E3,8.0386017E2,7.695403E2,7.9917065E2,4.6895247E0,7.655187E2,4.0215874E0,7.968507E2,2.3199263E0,1.3908422E0,3.2986827E0,7.641276E2,1.391082E0,1.3122228E0,2.7093644E0,7.954412E2,1.4095432E0,5.069714E0,7.5905786E2,3.6557E0,1.4140141E0],"tree_param":{"num_deleted":"0","num_feature":"32","num_nodes":"21","size_leaf_vector":"1"}},{"base_weights":[3.2121833E-2,3.6423808E-1,-5.082782E-1,1.1558474E-1,8.7507534E-1,-2.5784243E-2,1.0668236E-2,-9.600735E-2,6.287624E-1,1.1155156E0,-1.9416071E-1,1.7953674E-1,-3.2212654E-1,1.2072158E0,1.7160568E-1,1.2740465E0,1.0633132E-2,-3.228046E-1,3.1445827E-2,7.4899936E-1,-1.2821041E-1,-3.8477597E-1,5.647346E-1,1.3518236E0,-1.5493087E-2,8.676912E-1,-1.6159852E-1,1.5707703E0,8.3302647E-1,-2.1824796E-2,5.8761245E-1,-2.3802912E-2,1.7067624E-2,6.4636454E-2,4.9068555E-3,-1.1502821E-2,3.4646932E-2,-5.698299E-3,-2.4271583E-2,5.8007985E-2,-1.5609302E-2,7.677434E-2,-1.4861296E-3,1.7533762E-2,8.1543855E-2,1.0838339E-2,-1.981528E-2,9.0094216E-2,3.7360642E-2,-1.8040841E-2,4.8444703E-2,6.738137E-2,-1.6901845E-2],"categories":[],"categories_nodes":[],"categories_segments":[],"categories_sizes":[],"default_left":[0,0,0,0,0,0,0,0,0,0,0,0,0,0,0,0,0,0,0,0,0,0,0,0,0,0,0,0,0,0,0,0,0,0,0,0,0,0,0,0,0,0,0,0,0,0,0,0,0,0,0,0,0],"id":32,"left_children":[1,3,5,7,9,-1,-1,11,13,15,17,19,21,23,25,27,29,31,-1,33,35,37,39,41,-1,43,45,47,49,-1,51,-1,-1,-1,-1,-1,-1,-1,-1,-1,-1,-1,-1,-1,-1,-1,-1,-1,-1,-1,-1,-1,-1],"loss_changes":[6.1311817E1,2.6767256E1,8.051834E-1,1.5634184E1,1.7981472E1,0E0,0E0,6.439269E0,1.0900749E1,9.893875E0,1.636446E0,8.29904E0,3.3628383E0,4.4503994E0,5.8524094E0,5.163498E0,2.3476627E0,1.4214427E0,0E0,5.736206E0,2.7720394E0,1.4022803E0,2.5241928E0,4.350069E0,0E0,2.635882E0,1.6398504E0,4.066002E0,3.9214954E0,0E0,3.2451265E0,0E0,0E0,0E0,0E0,0E0,0E0,0E0,0E0,0E0,0E0,0E0,0E0,0E0,0E0,0E0,0E0,0E0,0E0,0E0,0E0,0E0,0E0],"parents":[2147483647,0,0,1,1,2,2,3,3,4,4,7,7,8,8,9,9,10,10,11,11,12,12,13,13,14,14,15,15,16,16,17,17,19,19,20,20,21,21,22,22,23,23,25,25,26,26,27,27,28,28,30,30],"right_children":[2,4,6,8,10,-1,-1,12,14,16,18,20,22,24,26,28,30,32,-1,34,36,38,40,42,-1,44,46,48,50,-1,52,-1,-1,-1,-1,-1,-1,-1,-1,-1,-1,-1,-1,-1,-1,-1,-1,-1,-1,-1,-1,-1,-1],"split_conditions":[2.592576E-1,6.095617E-1,7.472684E-1,2.9216734E-1,1.3249586E0,-2.5784243E-2,1.0668236E-2,4.6986616E-1,1.6725583E-1,1.4683126E0,5.685429E-1,1.0874108E0,1.2621785E0,1.111249E0,1.465678E0,5.02875E-1,1.8812796E0,1.922469E0,3.1445827E-2,9.1116124E-1,2.968769E-1,1.2693597E0,7.521144E-1,4.543743E-1,-1.5493087E-2,3.545937E0,5.7809055E-4,1.9869667E-1,5.9002733E-1,-2.1824796E-2,1.5295185E-3,-2.3802912E-2,1.7067624E-2,6.4636454E-2,4.9068555E-3,-1.1502821E-2,3.4646932E-2,-5.698299E-3,-2.4271583E-2,5.8007985E-2,-1.5609302E-2,7.677434E-2,-1.4861296E-3,1.7533762E-2,8.1543855E-2,1.0838339E-2,-1.981528E-2,9.0094216E-2,3.7360642E-2,-1.8040841E-2,4.8444703E-2,6.738137E-2,-1.6901845E-2],"split_indices":[22,9,26,19,29,0,0,29,24,28,3,28,31,5,16,29,26,24,0,0,4,7,0,15,0,2,31,24,29,0,0,0,0,0,0,0,0,0,0,0,0,0,0,0,0,0,0,0,0,0,0,0,0],"split_type":[0,0,0,0,0,0,0,0,0,0,0,0,0,0,0,0,0,0,0,0,0,0,0,0,0,0,0,0,0,0,0,0,0,0,0,0,0,0,0,0,0,0,0,0,0,0,0,0,0,0,0,0,0],"sum_hessian":[3.3958487E2,2.1052654E2,1.2905833E2,1.4242601E2,6.8100525E1,1.280297E2,1.0286522E0,1.014212E2,4.100481E1,5.556278E1,1.2537746E1,4.5807343E1,5.561386E1,1.7376778E1,2.3628033E1,4.8456963E1,7.1058154E0,1.1368673E1,1.1690735E0,1.5567346E1,3.0239998E1,5.2473198E1,3.1406615E0,1.5964017E1,1.4127613E0,7.1296473E0,1.6498384E1,2.7436008E1,2.1020954E1,4.1405697E0,2.965246E0,9.467313E0,1.9013596E0,7.9444127E0,7.6229334E0,2.7543634E1,2.696364E0,1.4796385E1,3.7676815E1,1.6781873E0,1.4624743E0,1.3992434E1,1.9715832E0,5.1203704E0,2.0092769E0,6.345463E0,1.0152922E1,2.049624E1,6.939768E0,1.9787138E0,1.904224E1,1.3779731E0,1.5872728E0],"tree_param":{"num_deleted":"0","num_feature":"32","num_nodes":"53","size_leaf_vector":"1"}},{"base_weights":[4.0263752E-3,5.4391605E-1,-6.8189377E-1,4.2369148E-1,6.307599E-1,-6.84995E-1,2.3933077E-2,2.1031731E-1,5.7818323E-1,6.515144E-1,2.4814492E-1,-1.2067394E-2,-3.4304645E-2,2.2538878E-2,6.066012E-1,6.386066E-1,2.4492478E-1,6.597301E-1,-3.396251E-2,-1.2951698E-2,3.4963027E-2,-2.2551002E-1,3.9810297E-1,6.499172E-1,-9.831643E-3,6.5525347E-1,-2.5033632E-2,-1.1306631E-1,5.588997E-1,6.786095E-1,4.0476745E-1,-3.73759E-2,2.8712658E-2,-4.7768492E-1,4.121853E-1,-1.6567325E-2,9.543649E-3,2.6659772E-2,-3.3094888E-3,3.3312347E-2,3.2248471E-3,9.3227355E-3,3.3735905E-2,-2.8854463E-2,2.3347946E-2,7.9844035E-3,3.4819275E-2,3.4088414E-2,6.943638E-3,2.6303286E-2,-1.46229565E-2,-3.746594E-2,4.9082763E-3,2.782966E-2,-7.0461333E-3],"categories":[],"categories_nodes":[],"categories_segments":[],"categories_sizes":[],"default_left":[0,0,0,0,0,0,0,0,0,0,0,0,0,0,0,0,0,0,0,0,0,0,0,0,0,0,0,0,0,0,0,0,0,0,0,0,0,0,0,0,0,0,0,0,0,0,0,0,0,0,0,0,0,0,0],"id":33,"left_children":[1,3,5,7,9,11,-1,13,15,17,19,-1,-1,21,23,25,27,29,31,33,-1,35,37,39,-1,41,-1,43,45,47,49,-1,-1,51,53,-1,-1,-1,-1,-1,-1,-1,-1,-1,-1,-1,-1,-1,-1,-1,-1,-1,-1,-1,-1],"loss_changes":[5.78245E2,8.855286E0,2.8031006E0,1.2058456E1,3.8504944E0,1.6867065E-1,0E0,1.16503105E1,4.147682E0,2.717926E0,3.2612925E0,0E0,0E0,1.0094011E1,1.879816E0,3.7478333E0,3.9329307E0,2.0022125E0,3.3022032E0,3.846322E0,0E0,2.9414759E0,2.7371902E0,4.160061E-1,0E0,1.4998322E0,0E0,4.822941E0,9.047313E-1,6.5364075E-1,3.1214328E0,0E0,0E0,1.5263567E0,8.9180815E-1,0E0,0E0,0E0,0E0,0E0,0E0,0E0,0E0,0E0,0E0,0E0,0E0,0E0,0E0,0E0,0E0,0E0,0E0,0E0,0E0],"parents":[2147483647,0,0,1,1,2,2,3,3,4,4,5,5,7,7,8,8,9,9,10,10,13,13,14,14,15,15,16,16,17,17,18,18,19,19,21,21,22,22,23,23,25,25,27,27,28,28,29,29,30,30,33,33,34,34],"right_children":[2,4,6,8,10,12,-1,14,16,18,20,-1,-1,22,24,26,28,30,32,34,-1,36,38,40,-1,42,-1,44,46,48,50,-1,-1,52,54,-1,-1,-1,-1,-1,-1,-1,-1,-1,-1,-1,-1,-1,-1,-1,-1,-1,-1,-1,-1],"split_conditions":[6.6999745E-1,8.3683157E-1,2.4555864E0,3.3373627E-1,8.260476E-1,2.169815E-1,2.3933077E-2,1.1747566E0,1.0530869E0,2.0576699E0,1.1449538E0,-1.2067394E-2,-3.4304645E-2,1.0174861E0,8.260476E-1,1.460857E0,4.788628E-1,1.5978354E0,6.0028774E-1,6.6563576E-1,3.4963027E-2,2.057544E0,1.6444595E0,1.096163E0,-9.831643E-3,6.56157E-3,-2.5033632E-2,1.3384719E0,1.7043803E0,1.796082E-1,1.3772291E-2,-3.73759E-2,2.8712658E-2,2.9746392E-1,6.095617E-1,-1.6567325E-2,9.543649E-3,2.6659772E-2,-3.3094888E-3,3.3312347E-2,3.2248471E-3,9.3227355E-3,3.3735905E-2,-2.8854463E-2,2.3347946E-2,7.9844035E-3,3.4819275E-2,3.4088414E-2,6.943638E-3,2.6303286E-2,-1.46229565E-2,-3.746594E-2,4.9082763E-3,2.782966E-2,-7.0461333E-3],"split_indices":[10,27,27,6,3,22,0,29,9,9,5,0,0,28,3,1,29,31,29,29,0,23,26,31,0,16,0,6,23,8,11,0,0,13,9,0,0,0,0,0,0,0,0,0,0,0,0,0,0,0,0,0,0,0,0],"split_type":[0,0,0,0,0,0,0,0,0,0,0,0,0,0,0,0,0,0,0,0,0,0,0,0,0,0,0,0,0,0,0,0,0,0,0,0,0,0,0,0,0,0,0,0,0,0,0,0,0,0,0,0,0,0,0],"sum_hessian":[1.5594673E3,8.727391E2,6.867283E2,3.6848965E2,5.042494E2,6.853068E2,1.4215033E0,1.5574539E2,2.1274426E2,4.7763773E2,2.6611685E1,2.236815E0,6.8307E2,1.06389694E2,4.9355698E1,1.7931606E2,3.3428204E1,4.7201797E2,5.6197414E0,1.7471071E1,9.140614E0,6.4312645E1,4.2077045E1,4.701139E1,2.3443089E0,1.771524E2,2.1636505E0,1.5918255E1,1.7509949E1,4.3792874E2,3.4089233E1,2.4805448E0,3.1391966E0,8.287783E0,9.183289E0,5.1441456E1,1.2871193E1,3.247855E1,9.598494E0,4.560132E1,1.4100724E0,7.4839215E0,1.6966849E2,8.846264E0,7.071991E0,5.0392323E0,1.2470717E1,4.351191E2,2.8096294E0,2.9246614E1,4.842619E0,5.426714E0,2.8610692E0,7.2770605E0,1.9062282E0],"tree_param":{"num_deleted":"0","num_feature":"32","num_nodes":"55","size_leaf_vector":"1"}},{"base_weights":[-1.0543794E-2,-6.903652E-1,7.0633286E-1,-7.0141363E-1,5.846262E-1,7.1609026E-1,-4.2370704E-1,-3.5118867E-2,-4.8415936E-3,3.3224873E-2,6.2544527E-3,7.186072E-1,-2.0614792E-2,-3.0177096E-2,9.772635E-3,3.8730732E-1,7.214864E-1,-2.5814552E-2,3.199563E-2,3.611465E-2,1.1729287E-2],"categories":[],"categories_nodes":[],"categories_segments":[],"categories_sizes":[],"default_left":[0,0,0,0,0,0,0,0,0,0,0,0,0,0,0,0,0,0,0,0,0],"id":34,"left_children":[1,3,5,7,9,11,13,-1,-1,-1,-1,15,-1,-1,-1,17,19,-1,-1,-1,-1],"loss_changes":[7.5054694E2,1.1544922E1,8.568787E0,3.8882446E-1,1.8614626E-1,2.40802E0,9.02444E-1,0E0,0E0,0E0,0E0,4.2858887E-1,0E0,0E0,0E0,2.282907E0,1.19140625E-1,0E0,0E0,0E0,0E0],"parents":[2147483647,0,0,1,1,2,2,3,3,4,4,5,5,6,6,11,11,15,15,16,16],"right_children":[2,4,6,8,10,12,14,-1,-1,-1,-1,16,-1,-1,-1,18,20,-1,-1,-1,-1],"split_conditions":[2.2092432E-1,1.556867E0,1.10127255E-1,1.0696075E0,1.0236108E-1,2.6680225E-1,3.6083898E-1,-3.5118867E-2,-4.8415936E-3,3.3224873E-2,6.2544527E-3,3.8848287E-1,-2.0614792E-2,-3.0177096E-2,9.772635E-3,8.937602E-1,1.3269715E0,-2.5814552E-2,3.199563E-2,3.611465E-2,1.1729287E-2],"split_indices":[21,20,7,30,23,26,4,0,0,0,0,21,0,0,0,20,23,0,0,0,0],"split_type":[0,0,0,0,0,0,0,0,0,0,0,0,0,0,0,0,0,0,0,0,0],"sum_hessian":[1.5380627E3,7.8945325E2,7.4860956E2,7.83117E2,6.3362303E0,7.4256415E2,6.045393E0,7.817092E2,1.4077871E0,5.0180407E0,1.3181896E0,7.4127386E2,1.2902975E0,4.704264E0,1.3411286E0,7.55419E0,7.3371967E2,1.4223645E0,6.131826E0,